-0.60986805,0.017793298,0.87466,0.87060857,0.40468144,0.27672732,0.20945966,0.9027097,0.99878323,0.5181581,-0.65143406,-0.25852793,-0.16129601,-0.7595607,0.49389735,0.90475094,0.79462576,0.79950416,-0.72166467,-0.8105901,-0.8610568,0.27255416,0.73641276,0.9513675,-0.033780575,-0.01045084,-0.76583964,0.50192726,0.1461724,-0.12204683,-0.7241457,-0.27587098,-0.1785972,0.029651027,0.59017694,-0.73856914,0.6523134,-0.4137032,0.16329859,0.14040124,-0.41742933,-0.7366113,0.0824589,0.7679002,0.33064657,0.19444582,0.7406304,0.9197647,-0.9590349,0.9355392,-0.8851752,-0.42796442,-0.74115163,-0.7587898,-0.26984727,0.5132158,-0.30683935,0.31900954,-0.02433539,-0.6463521,0.7007139,0.74714947,-0.903644,-0.47875237,0.7310186,-0.47683153,-0.6673066,0.86807966,0.31563744,-0.91641456,-0.2845657,-0.17067392,-0.035557315,0.52025974,0.5742509,-0.48730835,-0.79584926,-0.81692904,0.8265459,0.07545384,0.6949403,0.3013009,-0.035656214,-0.52074265,-0.37490255,-0.02625531,0.87952536,0.6574665,0.029980894,-0.16846307,-0.79501134,-0.0109797595,-0.48736116,0.31844538,-0.059778415,-0.09418863,0.6857234,-0.3247061,-0.7498508,-0.5993362,-0.79381806,-0.8960302,0.82390714,0.49384478,-0.23023193,-0.19307189,0.3855143,0.3463374,-0.2380687,-0.23346426,0.35650453,-0.6287477,-0.63370633,0.81080234,-0.42534,0.6037861,-0.74696857,0.8522052,-0.3233769,0.6138449,0.24338776,0.44768664,0.7594472,0.2519028,0.30768162,0.18844491,0.105996184,-0.06517511,-0.27401924,0.090746805,0.3831637,0.62886566,0.21243447,-0.7381518,-0.18561053,0.41778737,0.21730036,0.00948831,-0.9522644,-0.036528453,0.5839081,-0.3285454,0.14255586,-0.11595718,0.427936,-0.16543677,0.023741836,0.7807551,0.392487,1.1486272,0.9026403,1.455097,0.4294561,0.29411668,-0.116383664,0.09505574,1.0706719,1.071649,-0.50410914,-0.53534895,-0.51042354,0.14408349,-0.73679596,-0.2556068,-0.29266772,-0.7831153,0.4765249,0.84032667,0.17361403,-0.80285037,-0.28115982,-0.75431496,0.84166276,-0.57410073,0.8376844,0.71652573,1.1408632,0.19641203,-0.0070715286,-0.49517426,0.13677211,-0.36211333,0.47545752,-0.48206177,-0.31480798,-0.4401828,-0.5189455,0.085915886,-0.042885654,0.27627015,0.51399374,0.45844445,1.1639185,-0.2703098,0.6277628,0.41101676,0.62179065,-0.77243257,-0.68223435,0.2978401,-0.5035174,-0.667103,0.7279111,0.28626606,-0.7579363,0.13447206,-0.10115336,0.015302911,0.5984961,-0.19079474,-0.06704952,-0.28811198,-0.3782011,-0.25641572,0.12497953,0.13966411,0.010957501,-0.36975658,-0.20026667,-0.0019435479,0.76621616,-0.44641504,-0.18290345,-0.56596255,0.7454647,-0.5741967,0.19034469,-0.6211504,-0.5259129,0.30495209,0.27998415,-0.32730836,-0.20097068,0.68668365,0.29159755,-0.1948305,-0.37767708,0.030431952,-0.38990882,-0.26055476,-0.41477254,0.2585032,0.44126755,0.44546047,-0.35783136,-0.030645382,0.84076285,0.4721163,0.95717156,0.3202518,-0.16539775,-0.99383146,0.6914012,-0.062039692,-0.30816916,-0.39843017,0.31431934,0.25317025,-0.83365464,0.10026557,-0.6764655,-0.36550483,-0.41567892,0.18675138,0.0048032757,-0.9833648,-0.07459489,-0.32349113,-0.041910857,-0.2758271,-0.9810929,-0.51217395,-0.24916424,0.5888352,0.020164186,-0.34957477,-0.5495275,-0.48824015,0.5794963,0.8557064,0.66517967,0.63160795,0.7554303,-0.65471745,0.4096571,-0.5465342,-1.684854,-1.0255564,-0.38201532,-0.017629221,-0.32366168,0.033520605,0.33316654,-0.42777938,-1.09516,-0.4249554,-0.21654753,0.41030008,-0.04645255,0.9308381,1.1883682,-0.87734437,0.5900207,-0.4863476,0.8272763,0.85052484,0.48966348,0.17038548,-0.9155934,0.23351566,-1.1202888,-1.0031906,-0.71706533,-0.8970571,-0.6486282,-0.0856133,0.31127125,-0.8044452,-0.8386458,0.15306354,0.8998084,-0.8298793,-0.18479784,-0.48868924,-0.06506599,0.22226313,-0.50320005,-0.14244287,-1.5454134,0.019220913,-1.2335687,0.48575947,-1.0197693,0.31152,0.3233028,-0.0072369543,0.8440454,0.72247607,0.38490438,0.007732514,-0.45881057,-0.6461352,-0.5354255,-0.24976732,-0.5484119,-0.37271306,0.65837455,-0.17988674,0.70765543,0.349062,0.095366746,-0.062906295,-0.17691909,0.75435406,-0.58563685,-0.28448594,-0.27145216,0.43596917,-0.8148799,0.52662873,0.047997598,0.30894145,-0.13077559,0.65304494,-0.017691102,-0.759813,0.7873217,-0.40088505,-0.030671323,0.009911841,0.8642152,-0.36041316,-0.31955284,-0.01756188,-0.45752406,0.88456184,1.042585,0.49255955,-0.7418252,-0.2917597,-0.46840698,-0.093940504,-0.041052967,-0.9793794,0.20467967,-0.8407444,-0.468057,0.100112185,-0.20962815,0.25512418,-0.68216604,0.75670534,-0.6311077,0.18202221,-0.8088724,-0.90657866,0.53507185,1.145983,-0.45744437,1.3332081,0.043824077,0.67276347,0.46838364,1.0874442,0.62128717,0.42919707,0.26127616,-0.6552962,-0.03506003,-0.17836002,-0.31116784,-0.62168694,-0.58356494,-0.40997383,0.8359631,-0.220371,0.8830368,1.1231573,0.35298166,-0.523436,-0.9542684,0.22252902,-0.743709,0.27646044,0.47055894,0.3730713,-0.694237,0.92231125,0.5943711,0.5871596,0.12944843,0.2787271,-0.31566495,-0.41635862,0.78479064,-1.0468546,0.4964411,-0.15027332,0.25564802,1.1727321,0.79816526,-0.054060705,0.7351185,1.1773883,0.72851044,-0.37369677,-0.17027809,-0.9502506,0.561385,0.76470196,0.05046682,0.18907046,0.14861421,0.0021588486,1.0177423,0.2064852,0.32000145,1.0084004,-0.2092567,0.17874245,-0.91700435,-0.27039158,-0.051119976,0.3584535,0.25656193,0.27454108,0.016029276,0.556056,0.28213724,0.83654654,0.47834498,0.6100068,1.3585268,-0.085810326,-0.70916325,-0.09140529,0.9917791,0.84847075,0.9625369,0.4855603,0.8789814,-0.13997507,0.83274263,-0.27480355,-0.6698554,0.9861119,-0.27797878,-0.5231045,-0.35406587,-0.06144718,0.08900887,-0.12826015,-0.43399632,0.8937049,0.6316062,0.6165464,0.92427725,0.2341602,0.5608472,0.71449274,0.55524534,0.65895915,0.18798015,0.6998782,-0.55582285,0.67951494,-0.24216671,1.0745201,0.5717131,0.8453665,0.8540926,0.5451634,0.2332288,-0.18111806,0.061393682,-0.39913496,-0.3288131,-0.1712566,-1.1411239,-0.3679473,0.5024589,0.0014256256,0.04458262,0.45271346,-0.085704595,0.26851246,1.0822879,0.5084713,0.23037207,0.29015115,-0.78945535,0.90298766,0.62893504,-0.28360134,0.37133765,0.29856268,0.3681197,0.32536143,0.29087275,-0.47624016,0.63938004,-0.081022255,-0.046161752,0.78707325,-0.10165216,-0.51614463,-0.47347033,-0.3337512,0.6667123,-0.66113806,-0.1861625,-0.8535454,0.19107918,0.84777814,-0.22153892,0.90343827,-0.7559317,-1.0105389,-0.39773098,0.578142,0.35441792,-0.40059957,0.73651564,0.0400632,-0.45748547,0.28516185,0.47422755,0.0711163,0.001401371,0.86114836,-0.26680523,-0.19031754,0.888953,0.9134562,-0.46631762,0.87642616,0.041355886,-0.7387847,0.90940404,-0.52101624,0.32430372,1.0043348,-0.3373733,-0.5226514,0.032533024,-0.29619455,0.8517369,-0.94573605,-0.697769,-0.9404782,0.90455705,0.49346662,-0.1232123,1.038686,0.7860129,0.60376084,0.8814862,-0.60002327,0.95164895,0.996396,-0.09861309,-0.24214861,-0.1537742,-0.117778435,-0.13842717,0.11656004,0.41798532,0.67460334,-0.34870204,0.91846365,0.3006806,-0.37407097,0.4958861,0.33491853,-0.68566597,-0.37109986,0.80420923,-0.84764516,-0.9168395,-0.27107325,0.2218455,0.96188504,-0.31871253,0.12668392,-0.52770835,-0.4355291,0.7549441,0.005509138,0.6623131,0.99802774,-0.5347916,0.52805287,0.23534107,0.3673616,-0.12346271,0.57362926,-0.3329279,0.9524853,0.24322519,-0.8545945,-0.68789995,0.5122128,0.7698214,-0.47399607,-0.78238654,-0.5040382,0.2558558,0.039497502,-0.554192,0.6178635,0.17187761,-0.28861055,0.35966337,-0.4743068,-0.027537096,0.6682808,-0.97974414,0.38094896,0.74016106,0.17958263,-0.8772269,0.065358065,-1.035771,0.92546105,-0.81385624,0.5920809,0.13894281,-0.121306986,-0.3917955,-0.17800601,0.7851362,-0.8149524,0.50991356,-0.98981124,-0.60885364,0.6815011,-0.11528585,-0.42629257,0.33680275,-0.08030881,0.6213876,-0.16375333,0.49535134,-0.08577135,0.67015165,-0.5098822,-0.075582944,0.5568923,0.2640008,-0.83193374,0.46170938,-0.46138558,-0.4353694,-1.0763699,-0.48542467,0.45500097,0.88563704,0.4778978,-0.80522484,0.24071908,0.6013354,0.8756343,0.59002334,0.26862562,-0.86391675,-0.9493138,0.3510175,0.047086086,-1.2219949,-0.5122871,-0.25759232,-0.3652719,-0.4343207,-0.48216853,-0.9155949,0.1851318,-1.2224449,-0.49793628,-0.06934616,0.3316388,-0.7367837,0.13727142,0.77352893,0.69232607,0.55648714,0.8325957,-0.77922136,0.28571117,-0.4208972,-0.3622076,-0.2526195,-0.21529882,-0.5654432,0.69896597,-0.38898787,0.41467384,-0.12149939,-1.0277522,-1.1461985,-1.0043336,0.035522077,0.107008256,-1.3921506,0.33010206,0.48930377,-1.0781821,-0.3558199,-1.2091243,0.114750355,-0.8753022,0.23865499,0.4960861,0.93367463,0.9504264,-0.7743058,0.3733436,-0.8428768,-0.6124494,0.7774459,0.36185956,0.81285095,0.31023678,0.059416093,-0.44498688,-0.44261253,0.39435545,-0.3040285,-0.83736783,-2.3901022E-4,-0.8872053,0.4727258,-0.35081396,-0.47267145,-0.8003988,0.40843588,-0.86629784,0.051549897,0.73388565,-0.35568985,0.24215747,0.83068895,0.9832225,0.62563384,0.27267313,0.70208657,-0.56022316,0.15055966,-0.8758471,0.31900775,-0.15722227,-0.67666787,0.22761524,0.67181957,-0.15828532,-0.0563457,0.032286406,-0.54956883,0.45177728,0.42223462,0.09654527,0.81728685,-0.18253362,0.3398633,0.9860325,-0.21209002,0.5136256,0.25033474,-0.23447645,-0.14117444,0.55726683,-0.60784996,0.7331917,-0.21827024,-0.4175728,0.89565325,0.22776055,0.4556008,-0.78465605,-0.20494822,0.8305919,-0.20798044,0.5874719,-0.29804695,0.10287771,0.10517144,0.14050066,-0.6530338,0.105986625,-0.8707184,-0.5728408,0.3778723,0.3502847,-0.0850154,-0.68538576,0.67518073,0.6690479,-0.6653352,0.41721344,-0.49772018,-0.5522368,0.51328063,0.8065131,-0.9134995,-0.92105234,0.4118153,-0.16599739,0.8099901,0.13191557,-0.57156634,-0.82315946,0.5186245,0.92363787,-0.77696157,0.33992907,0.05234108,-1.0399567,0.028013984,-0.66521955,-0.5827864,-0.40878356,0.10822963,0.30568483,0.85467136,-0.68007594,-0.22246519,-0.27398995,-0.36678338,0.021594524,0.99986446,-0.5473418,-0.45878643,-0.39215544,0.77561754,0.16215381,-0.64194685,0.9752881,0.8882386,0.7482701,0.011683863,0.5587781,-0.35517418,0.41057637,0.024788024,-0.546963,-0.17656541,0.16987093,-0.9023366,-0.30402973,-0.65443563,0.5584806,0.6306631,-0.13752733,-0.56551087,-0.14587168,0.91376376,-0.938313,-0.16008276,0.922866,0.80735606,-0.43849635,0.47038782,-0.77557117,-0.45857108,-0.025261978,1.0776409,-0.12632704,0.8226439,-0.6348951,0.50244045,0.48750895,0.26451373,-0.1729323,-0.36871776,-0.39886317,0.50732344,-0.044628892,-0.594249,0.27430913,0.31432024,-0.6177096,0.62196046,0.44587535,-0.21787596,-0.5046661,-0.92058164,-0.49349117,0.55036336,-0.8675809,0.0037537285,-0.438417,0.17127022,-0.2896163,-0.21723299,-0.17117748,-0.2079349,0.68590677,0.41048473,-0.14465378,0.52402014,0.44447646,-0.22761765,0.59525305,-0.45350102,0.06209995,-0.0075368234,-0.5080389,-0.17022845,-1.0649102,-0.52490723,0.78754944,-0.10846124,0.40793502,-0.95097876,-0.542559,-0.83380514,-0.33790514,0.750917,0.56902313,0.6380384,-0.5237885,-0.76615834,0.2776207,-0.14911136,-0.06409774,-0.35512403,0.075930126,0.3421663,0.38485074,0.30221802,-0.041501936,0.9788822,-0.84997946,0.21723194,-0.19339257,-1.1996231,0.1973523,0.035996363,0.1276337,0.59705156,-0.9339102,-0.71207607,-0.76537395,-0.035505693,-0.22938938,-0.7875306,-0.48005193,-0.16163531,0.10839476,-0.7557536,-0.5764275,-0.46737698,-0.19718423,-0.013591053,-0.2028711,-0.49140182,0.055988356,0.48360777,0.4658437,0.088611566,-0.023585169,-0.29523575,0.5433924,1.1251196,-0.57786924,-1.1570007,-0.5669961,-0.46158728,-0.7050332,-0.7964057,-0.2188434,0.06823927,0.6937083,1.1613559,-0.56015223,1.0251857,1.0141084,0.7853404,0.18282315,0.39339185,0.16682878,-0.14565104,-0.86833084,0.08023321,1.0681278,0.41054723,-0.49348712,0.2801974,-0.38101923,-0.74249476,-0.16518526,-0.56794643,-0.9335804,-0.68611866,-0.41074347,-0.991941,0.3139231,0.25126362,0.86686176,0.56291145,0.6085472,0.4809854,-0.17909133,0.5640693,-0.35302675,-0.2724024,0.04626625,-0.32504806,-1.010863,0.011626626,-0.7702895,-0.6577141,1.2324449,0.5533054,0.59330815,0.43376708,0.32071266,0.51265675,-0.86306113,0.20829222,-0.22007264,-1.8966162,-1.4515144,-0.19975005,0.6677731,0.2388514,0.8610396,-0.9335158,0.85970783,0.34912112,0.2146791,-0.030492598,-0.4470323,0.030672058,-0.6273975,0.023289632,-0.26546052,-1.4132043,-1.0970912,0.6694846,1.4580964,0.5670176,0.24665536,0.7583568,1.1280873,0.65679485,1.0719899,0.017725011,1.1324741,0.25192642,-0.04567073,-0.6736986,0.54622686,-0.12673037,0.8043582,-0.14007933,0.3867747,-0.019573294,-0.5098538,-0.50814587,1.038113,-0.21566339,0.46073186,-0.0960281,-0.21166095,-0.20425485,0.33980066,1.5964649,1.8829645,0.48339853,0.42782736,0.45462283,0.24810891,1.0230514,1.6849204,1.2916992,0.1971992,1.0011966,0.6755766,0.66721576,0.6504583,-0.1309958,-0.5227077,-0.7936654,0.4672578,0.091915235,-0.3336228,0.32546034,-0.9095247,0.25732556,-0.49121645,-0.99209136,-0.8250212,-0.6567199,-0.16693205,0.34795386,1.3566238,-0.6798783,0.7883947,0.38220835,0.5326801,0.0936834,1.1328532,0.13910702,0.52508837,-0.24584666,-0.29694024,0.08975026,0.38076848,-0.20889883,-0.28593695,-0.13751124,-0.87140286,-0.38103524,-0.75133246,0.5478429,-0.31131786,0.052541707,-0.096559495,-1.0513606,-0.030029872,-0.24192314,0.7252221,0.65377927,0.9217784,0.6524087,0.49669635,-0.10913618,0.4520742,0.97086823,-0.0011769495,0.10404272,0.419027,-0.5504672,0.108963124,-0.6735948,-0.1106403,-0.5591822,0.9449651,-0.86028683,-0.55628544,0.53038037,0.31687808,-1.0547215,-0.7471165,0.20695108,-0.7252543,0.36781743,0.4643312,1.3378448,1.154701,0.6603592,0.9836818,0.26450115,0.479423,0.332341,0.6929966,0.006051726,-0.01769498,-0.7265232,-1.0115519,0.44148502,-0.54714197,0.9059349,-0.41735226,-0.2123967,0.4557459,-0.63835406,0.65334547,0.38342464,-0.13771789,-0.2879467,0.25049672,-1.2974488,0.19434787,-0.25489023,0.20123562,-0.35126603,1.0132916,0.1326766,0.70251834,0.830458,-0.22232427,0.80804205,-0.2519061,-0.6502613,0.23337406,-0.49171403,-0.54864264,-0.68784547,0.1010533,0.47160652,0.078493826,-0.57283694,0.8993535,0.18335378,0.60545933,-0.59515005,0.48312238,0.447633,-0.79610234,0.39739874,-0.41699743,-0.2527189,0.88672715,0.5737708,0.3552834,1.1492524,0.5931067,0.08771057,0.14305651,-0.14597015,-0.38312533,-0.31322676,-0.9043222,-0.71584886,0.16821639,-0.34978297,-0.46552178,-0.49004886,-0.51800525,0.18605173,0.031482846,0.02186042,0.8844089,-0.40368307,0.333047,-0.82816637,-0.11092958,-0.01982174,0.44224405,0.04105369,0.17324652,0.22939081,1.0915214,0.85284936,0.13107927,0.88544863,0.43275988,-0.071571395,-0.88631725,-0.0103973625,-0.84364897,-0.15263453,-0.9315944,-0.04099241,-0.3250092,-0.703701,1.0093951,-0.19781734,-0.6193344,-0.94505334,0.009461305,0.078218386,0.007226666,0.5839349,-0.2526817,0.40676534,-0.21802238,0.13395232,0.6238222,0.93346894,1.3047346,0.46654943,0.465132,-0.51644576,-0.7912128,-0.049564596,-0.82616085,0.296285,-0.89291406,-0.8444704,-0.2272455,0.56895506,0.31944895,-0.5474677,0.49333763,0.62479293,-0.21130243,0.51906353,0.19368765,0.10201582,0.35763472,0.59544146,-0.48328373,-0.70248455,0.36365518,-0.23153903,-0.6021348,0.21530978,-0.24033242,0.34364328,0.61350316,0.16195591,-1.0040269,-0.67441976,-0.28234515,-0.68443537,1.3650086E-4,0.7115573,0.28205925,-0.72409517,0.8624858,-0.61604,-0.7815266,0.9779613,0.88331044,-0.40880787,-0.54735124,-0.8511621,-0.102409445,0.018382251,0.5235049,0.21432331,0.2940655,-0.20010264,-0.056732304,0.18496507,-1.0225265,-0.1804476,-1.0995207,0.217445,0.12558973,0.28578842,0.30686846,-0.31002694,-0.015868505,-0.2762276,0.44120646,0.25877178,0.4743655,0.31525588,-0.03190562,0.21038128,0.7930864,0.75814384,-0.9173782,0.4827275,0.48269877,0.8499786,-0.260386,0.10568986,0.13257174,0.30240062,-0.18595837,-0.60484225,-0.07350253,-0.49088824,-0.18906052,-0.48227054,-0.82681614,-0.21727009,-0.08220818,-0.58134997,-0.27911672,-0.8122744,0.5423835,-0.37838164,0.28545576,-0.3157614,-0.41254336,-0.46748656,0.40245032,-0.3784923,0.75643927,0.7360999,0.32078075,-0.11093145,0.6221699,-0.17383176,0.33797178,0.5067942,-1.3159513,0.30746213,-0.61055183,-0.1926316,0.099293254,0.243845,0.78780633,-0.18712768,-0.39555082,-0.3740351,-0.017099082,-0.04250637,0.19530311,0.032465965,0.47003624,-0.05883875,-0.51628506,0.49766588,-0.28829306,0.46406233,0.48419744,-0.5582344,0.2484104,-0.6979838,0.5617533,0.9209197,-0.71603465,-1.0073719,0.5601141,0.2120099,-0.93424124,-1.3485907,-0.10727616,-0.733509,-0.071879,0.19808236,1.1583549,-0.16435269,-0.4337753,0.6330199,0.55987567,0.75190413,-0.3024452,-0.73713,0.69737923,-0.5671364,0.23408782,-0.3565198,-0.6190836,0.95564693,0.5895357,-0.6221446,-0.35585248,-0.8788028,0.42203903,-0.48905793,-0.6125652,-0.28938672,-0.078119025,-0.2350473,-0.3581905,-0.9494309,-0.06878222,-0.35960507,0.13282561,0.37915826,-0.20224482,0.5869131,0.7819444,-0.5647559,0.85389465,0.9742143,0.8925786,-0.74044263,-0.6871886,-0.9015705,0.23999128,0.7540132,-0.26252943,0.7744489,0.38533273,-0.19945495,0.22171655,-0.116196446,-0.6566284,-0.38947052,0.48059854,-0.06288563,-0.85154015,-0.35341024,0.045926727,-0.36806226,-0.53557175,-0.68910825,0.3114045,-0.27365232,-0.27687752,-0.82611513,-0.24782638,0.4791679,0.566414,-0.033433795,0.6340864,0.7595862,-0.031844813,0.14061451,-0.95798534,0.2872829,0.8391719,-0.5062605,-0.09429743,0.64397395,0.1896943,-1.1928378,0.09093493,0.4864614,0.29303738,0.6717712,-0.743267,0.5503693,-0.11991079,0.30996716,-0.48485082,0.6537745,0.14211974,0.22172129,0.80184937,-0.42828578,0.8933964,-0.49259585,-0.26855808,0.6932217,-0.95291543,-0.35101923,-0.40515044,0.4743921,-0.15426989,0.5153453,-0.10925233,-1.0325164,-0.41205463,-0.77476996,-0.3392605,0.8665508,0.6351176,-0.1328198,-0.18385926,0.07855548,-0.8982178,-0.6849085,-0.48150682,0.2933764,-0.06724977,-0.58358,-0.15987492,-0.7271012,-0.070709765,0.09141755,-0.010650516,-0.11959016,-0.19077909,-0.8201437,0.26128602,-0.9603826,0.8058176,-0.84131074,0.7905681,0.5677154,0.46625066,0.5986577,0.38002998,-0.4322933,-0.58874506,-0.7967692,-0.6660424,-0.47271866,-0.76225793,0.17189825,0.13759446,-0.14451873,-0.42894286,0.2921976,-0.04456228,0.9376415,-0.6078677,0.72291636,-0.4454761,-0.042170644,0.19653594,-0.28545704,0.010190693,-0.2852524,0.28891495,0.688203,-0.24644758,0.46216837,0.5797527,0.8845703,-0.06648503,-0.7649529,0.5151804,0.1266878,-0.05439357,-0.5001789,0.8896503,-0.7643717,0.6173815,-0.9541243,-0.03783718,0.2698108,0.6165409,-0.16290998,0.9200505,-0.5852455,0.65117955,-0.4990804,0.18790185,0.109781,1.3317459E-5,0.77522707,0.8497445,-0.22023739,-0.7507634,-0.083416805,-0.8956044,0.86724126,0.48490033,0.17452157,1.0249146,-0.16208234,0.6109442,1.1998652,0.53351796,0.5339826,0.38300434,0.8367149,-0.59153056,0.26288047,-0.58029395,-0.48483962,0.57462263,-0.23742443,0.071909785,-0.6579674,0.8439381,-0.49485618,-0.78677803,-0.9063716,0.08515255,-0.0844962,0.5785132,0.3058883,0.69081295,0.81720334,0.3629205,-0.44607908,0.455368,0.3334442,-0.30142963,0.624946,1.0623347,0.28745356,0.35726246,0.9817831,0.82718873,1.2549348,0.910656,-0.99842685,-0.58484924,0.5132091,-0.921255,0.022839116,0.4212419,-0.47603825,0.7723593,0.24233097,1.1506135,1.0146707,-0.1586695,1.0652351,-0.17499095,-0.35225102,0.64432156,-0.29518726,0.7672172,0.33503225,1.3249384,1.0201168,0.33981586,1.0953364,1.1009207,0.66749316,-0.4734904,-0.1474859,0.54038864,0.58807313,0.24736336,-0.6045331,0.599352,0.7676403,-0.4147,-0.9471635,-0.05740411,0.7781969,0.4159721,0.32890025,1.094828,-0.33084357,0.94952005,0.5418513,0.23431933,1.2006413,-0.23265581,1.5104697,0.3844817,-0.22371963,1.2400297,-0.048800927,0.16770223,-0.012520721,-0.33543023,0.21604759,-0.16596249,0.31944457,-0.14362247,-0.19614685,-0.55760705,-0.706338,0.37912813,-0.6977518,-0.23306319,-0.11129095,-0.110396646,0.8493603,-0.04870197,0.55762124,0.20626141,0.32517818,0.75174135,-0.47986493,0.035788298,0.45052853,0.58773136,-0.92577916,0.6916138,-0.5317635,0.4239299,-0.75591356,0.48305553,-0.33029684,-0.13413027,-0.26334414,-0.71853447,0.9354714,-0.6999174,-0.25372148,-0.26524803,0.5849734,0.36872366,-0.6690623,1.082186,-0.23501322,-0.7129355,0.39303884,-0.7101553,0.22648042,-0.8642379,-0.15547077,-0.4402123,0.24043651,0.59181744,-0.6657801,0.42441285,-0.051753376,-0.73194385,-0.49259484,0.05484676,0.053725958,0.17405656,-0.8283131,-0.4972555,0.6776758,0.34262204,0.56631505,-0.6532115,-0.4680526,0.91450965,-0.4736683,-0.32081392,0.22256908,-0.6816594,0.5298639,-0.6373858,0.78700125,0.40388605,-0.69393253,-0.5549614,-0.31431678,-0.019372532,-0.059813395,0.14712827,-0.8329438,-0.29209208,-0.6941845,-0.9456655,0.21681677,-0.5568271,0.049986377,0.017345108,-0.0712478,0.22287798,0.47646874,-0.3910949,-0.15200403,-0.42329347,1.1996247,-0.29391807,0.6220645,-0.071225934,0.43489626,0.6203174,-0.9175809,-0.415761,-0.5047317,-0.5987288,-0.39689726,-0.024093809,-0.4837013,-1.0624342,0.2057134,0.501039,0.65623116,-0.21170351,-0.91453964,-0.0033764276,0.7816033,0.84817123,-0.8936938,0.72491956,0.07067862,-0.13911055,-0.76499677,0.6358596,-0.3839792,0.6496355,0.20630227,-0.8232306,-0.7870052,-0.73572594,-0.11197926,0.30411196,-0.078232676,-1.2278066,-0.12805355,-0.80720615,-0.37222195,0.6449804,-0.47647938,-0.75989246,-0.45840788,-0.2631684,-0.01580299,-0.8156203,0.023649072,0.735012,0.3585561,0.43998206,0.24473634,1.0306312,-0.61972916,0.48166642,-0.42526948,0.8759749,-0.45046428,0.6942778,0.5397284,-0.20306432,-0.3275629,-0.29990923,0.05244952,-0.3398806,0.7022202,-0.5889864,-0.29381138,-0.9571643,0.10552407,-0.32907256,0.38264778,-0.009184502,-0.73114026,-0.37673858,-0.7964056,0.8997973,0.43413523,-0.18307203,0.9942043,-0.28141204,0.60713506,0.22797874,0.07233612,-0.2511355,-0.76023346,-0.015959164,0.5114,-0.7141731,0.22589032,-0.40489942,0.28088874,0.29091582,0.20147386,0.37763545,0.9627348,-0.169272,-0.6798306,0.43787622,0.6952193,0.024192233,0.21275261,0.47979647,0.53366846,0.4392251,-0.67918855,0.47582346,0.89581835,1.120907,0.21045168,0.95338804,-0.8775281,0.65649265,0.19026287,-0.6325621,-0.8827888,-0.3174102,-0.15780012,-0.34372324,-0.170575,0.53651786,0.32470578,-0.42218313,0.725812,1.0411134,1.0578022,0.7396175,-0.11078935,1.2512417,1.3823496,-0.122771926,0.68597335,-0.49309975,0.5583469,0.025949366,-0.6620878,0.41908893,0.27519798,-0.46369013,-1.069083,-0.89998925,-0.7646157,-0.7181459,-0.24047793,0.09817421,-0.24087226,1.005372,0.49924788,0.35805583,0.10805348,-0.26951507,0.2191999,0.12090854,-0.38163143,0.31577048,0.6886377,-0.048287373,0.3512999,-1.0715494,-0.7755943,0.3743092,0.6535512,-0.9703513,-0.42258736,0.07215977,-0.8821547,-0.20159988,-0.6396965,-0.5920903,-0.68788755,0.19599861,-0.03376496,0.3563028,0.52461976,0.2153537,0.84454024,0.32743052,-0.0971837,-0.660905,0.9104139,0.53183424,-0.02993004,0.2259266,0.6424065,-0.46449772,-0.5787195,0.12685826,0.1886017,-0.044895157,-0.7658935,0.550219,0.56696755,-0.114559054,-0.5436273,0.17048848,-0.26950747,0.15757917,-1.118887,0.43663928,0.6260868,0.25944167,0.065929785,0.7335119,0.18678088,-0.7105706,0.3254302,-0.6621355,-0.8421656,-0.12765588,1.1054485,-0.030371126,0.35481283,-0.70994806,-0.60434407,-0.31820676,-0.6386311,0.31397933,0.44508195,0.5902796,-0.19367212,-0.79872924,0.07277925,0.33686593,-0.029356074,0.751268,0.7199451,-0.07724308,-0.44993526,0.2655228,-0.3904112,-0.4159361,0.05536255,-0.09229503,-0.18943988,-0.21429934,0.71296984,-0.829183,-0.0629963,-0.31451225,0.8514479,0.38967702,-0.447519,0.82875144,0.569663,-0.5928272,-0.33085984,-0.15681678,0.08628097,0.8296945,0.27360722,0.041158415,-0.22015968,-0.58805686,-0.19609149,0.4969934,0.25550956,-0.79127765,0.7582996,-0.5711392,0.18348423,-0.12115381,0.016313095,-0.12370834,-0.13046762,-0.42557684,-0.70992583,0.4525098,-0.62192553,-0.7198952,-0.5248071,-0.88351405,0.45332965,0.22060052,-0.08394466,-0.59811646,0.83302486,-0.47028783,1.1954709,0.14625488,0.15065359,0.16498756,-0.06752983,0.921004,0.5354864,0.24756831,0.3387653,0.14796624,-0.34090355,-0.31814536,0.079661526,0.3186709,-0.41208383,0.5650519,1.2778032,0.8596947,-0.27094352,0.9405801,-0.82901484,0.69079316,-0.12416083,-0.43658528,-0.830225,-0.40484306,0.033000577,0.5035801,-0.54179853,-0.08971204,0.20001934,1.0477064,0.35948908,-0.75525695,0.3106919,-0.5424514,0.20641008,-0.27042615,0.3556426,0.82991123,0.68735623,0.39926144,-0.0073498324,0.696126,-0.2437169,1.1056261,-0.6521771,0.13738184,0.25105897,0.5717122,-0.29884627,0.5076685,-0.38141736,-0.2697773,0.63948566,0.7986942,0.13705996,1.0984455,0.14153175,0.7902019,0.2041537,1.0760744,0.21416827,0.8998972,0.5945007,0.75436604,0.47527108,0.114015676,-0.52328074,0.3613753,0.8602644,0.90869117,-0.07439487,-0.046895083,0.2517194,-0.10564198,-0.8517821,-0.76202416,0.5411139,0.14558947,0.014139757,-0.64517564,-0.24635074,0.17656629,-0.39252234,1.2386411,0.20476209,0.80439925,0.87158364,-0.53110117,0.27925956,0.39826903,-0.25338405,0.7349014,0.23304348,1.0740252,0.21899585,0.35405186,0.18760364,0.12351704,0.09109061,0.15316999,0.12905917,-0.30556408,-0.3617855,-0.47425228,-0.05891611,0.21861082,-0.58353543,0.74451804,-0.32674435,0.6318532,-0.04338209,0.16232203,-0.09351017,0.69835407,-0.26922888,0.09383343,-0.60038066,0.6063921,-0.014197352,0.5264099,0.45528144,-0.28586787,-0.014971837,0.7892143,-0.8086702,0.471968,-0.13559724,0.84043664,0.12458239,-0.32221457,-0.6013085,0.33801785,-0.910973,0.97977424,0.27851212,-0.58341175,0.92231,0.62829244,0.33647138,-0.89261997,0.5336029,0.5344843,0.70016277,0.70803016,0.5279374,0.10133057,1.1947052,0.3484516,0.8871317,1.0282956,0.11343604,0.32080764,0.0093142735,0.23252189,1.0148612,-0.5424401,-0.38280493,-0.7260817,0.59252733,0.83375573,0.6396437,0.6048771,-0.7910676,0.98516834,0.013237344,-0.34904796,0.49696288,-0.3853967,0.59636295,-0.5511949,-0.1300851,0.38279745,-0.56556207,0.84245616,-0.42595476,0.12549143,-0.868631,0.59379107,-0.32107505,0.13025886,-0.48133388,0.044468813,-1.0801557,-0.5769015,-1.0344557,-0.49405494,0.41197187,0.5297151,0.051444218,-0.33663785,0.82381153,0.19498563,-0.16888863,0.36563224,0.5880463,-0.40887213,0.8708804,-0.26677334,0.3179896,0.5489286,-0.4105708,0.8383662,-0.14439066,-0.21633314,-1.1653281,0.3089064,-0.17062669,-0.67975515,-0.895014,-0.93848825,-0.14916746,-0.7985398,0.45193058,0.8038632,0.20572224,-0.04185434,-0.5899056,0.5265566,-0.14198607,-0.23195207,-0.74626887,-0.65899277,-0.67497414,-0.9400132,-0.2864824,-0.03499763,-0.7416737,-0.58228576,0.61622673,-0.43102643,0.62972784,-0.39691663,-0.98783547,0.71023315,-0.9514677,-0.5813188,0.658039,0.55042565,-0.02380365,-0.5327635,0.7583797,0.64716923,-0.04647088,-0.16947114,-0.8134341,-0.85188836,-0.846027,0.65710557,-0.25935185,-0.43859988,0.44534624,-0.77506816,-0.15835589,-0.6123576,-0.5554341,0.4074515,-0.65353215,0.5127566,0.3433879,-0.018307287,-0.33611724,-0.19657184,0.6408758,-0.9618361,-0.7360681,0.08155143,0.04736185,0.8988457,-0.5206943,0.71061563,0.7893001,-0.5607891,-0.9145483,-0.60448074,0.28055823,-0.54979956,-0.41954267,0.47970545,0.71685445,-0.20771655,-0.70234144,0.01153952,-0.5644321,0.4112442,-0.4920389,0.18438786,-0.2311818,-0.44557908,-0.06905007,-0.6252284,0.80892134,0.5532532,-0.45279124,0.5556883,-0.108957805,-0.77528566,0.42292657,0.84991807,0.53014135,0.1475904,-0.89264613,0.043245554,-0.64309263,-0.99148446,0.8857918,0.3429373,0.67868614,0.807633,-0.83340245,-0.9030094,-0.52523285,-0.43394226,-0.8691954,-1.0329075,-0.6407227,-0.47164857,-0.6597898,-0.12146202,-0.31848094,0.2567558,-0.5028717,0.41080332,-0.8227602,-1.0394468,-0.9673426,-0.696946,0.59941125,0.42989144,-0.9592099,-0.34284598,-0.8341205,0.9451314,0.60341185,0.20816782,-0.6742132,0.021313004,-0.95146656,0.52614343,-1.0207827,-0.2201686,-0.6276516,-0.037111677,-0.08293851,-0.2601393,0.0050212606,-0.40219215,0.35797334,-0.30897012,-0.74696666,0.2593107,0.029930772,0.098416366,-1.1068466,-0.5925697,-0.12923671,-0.7412167,-0.20878902,0.90653527,-0.16094804,-0.7348051,0.6594466,0.4918066,0.8272119,0.31994423,0.4885462,-0.16584769,0.1469955,0.48013544,0.37810796,0.24686757,0.39718357,0.20571671,0.2784325,0.6326046,0.4310083,0.9361558,0.49601775,-0.4813856,-0.09873179,0.9633657,-0.31332126,0.20779034,-0.18123811,-0.60610235,0.6590161,-0.66388756,0.2799462,-0.61168945,-0.097026445,-0.27339485,-0.44707122,-0.17473005,-0.7780245,-0.01413523,0.18669593,0.19456369,-0.58025104,0.338678,0.41710776,-0.39256185,0.75515395,0.6714201,0.8827863,0.3678712,0.7901534,0.25758043,0.28050524,-0.9776879,-0.16843297,0.4198199,-0.9556539,0.18907908,0.9157312,0.29424694,-0.9355641,-0.13783713,-0.23284456,-0.63821566,0.096547045,0.8137427,1.0580206,-0.51489794,-0.011238749,0.33429545,0.24260542,0.2273816,0.26658645,1.1165324,-0.29507354,0.12396642,0.3981344,0.5120504,0.037841585,0.6795603,0.9302352,0.8045767,0.90423846,0.19611348,-0.27915138,-0.4514133,0.78233075,-0.33805886,0.8170568,-0.6484567,0.27028933,1.1060631,0.33622852,-0.48122808,1.0550007,0.8628101,1.3272449,-0.2095555,0.024954174,-0.31460035,0.80390346,0.15403746,0.56654525,-0.061696567,0.6456138,0.9958383,0.33286512,0.371685,-0.4476248,-0.18336041,-0.15822427,-0.45817056,-0.05124343,-0.12421203,-0.75199884,0.89613646,0.008320511,0.9480094,0.23969048,0.74403036,1.1321123,0.020720715,-0.11199291,0.23684445,-0.064077556,0.99270177,-0.12540539,1.173508,0.07654415,0.90649515,0.17909923,0.8296651,0.79263633,-0.12812845,0.42936444,0.49203274,0.76970303,1.3925635,0.32559654,1.7852044,0.048085205,-0.19075325,-0.07932037,-0.6343032,0.7599695,-0.49685016,0.8253048,0.88473916,0.33510616,0.17088954,1.2333294,0.3753284,0.13038297,1.1796608,0.5403655,0.94865996,0.17366007,0.73742884,-0.8547936,-0.87958956,0.655236,1.1365639,1.0258895,0.7215915,0.5626801,1.0247214,0.34788054,1.413416,0.8104198,0.9141321,0.67054665,0.23568171,0.5425839,-0.48809814,0.40088648,-0.594161,-0.4462217,-0.038018808,0.63653535,-0.574459,-0.28557643,1.0416261,0.4872934,-0.020395162,-0.39628267,-0.3109774,-0.35145396,-0.39282456,-0.43889993,0.69873965,0.08372791,1.1358682,0.47041354,-0.45856243,0.59871715,0.21691118,-0.14566453,-0.48120812,0.17988612,-0.7444437,-0.29071432,-0.888954,0.16257942,0.62107414,0.7491073,-0.11421208,0.8947323,0.4220885,0.820698,0.3371364,0.2722859,0.8290593,-0.081312515,0.23498777,0.21672006,-0.21371007,-0.5509296,-0.28101626,0.5664504,0.19578674,-0.5117327,-0.44892216,0.33600464,-0.91142225,-0.47657144,-0.01962726,0.33883157,-0.007921574,-0.55522645,-0.013916241,-0.9942396,0.95397836,0.5579784,0.5302728,-0.23979813,-0.54943264,0.17566775,0.5295041,0.94640905,-0.8996595,0.18761711,-0.2548392,-0.84127253,-0.107676975,-0.45870495,-0.17225604,0.037006523,-0.024482345,0.49161926,-0.14242092,0.16107374,-1.0212361,0.325951,-0.5372294,0.8070588,0.8513687,0.14308202,-0.69255024,-0.5475363,-0.49984774,-0.35640275,-0.63830316,0.8131663,-0.6882005,1.2142118,-1.1933923,0.15074387,-0.2840023,-0.11380916,-0.056193966,-0.15468836,0.0019836319,0.46176925,0.17341873,0.51229125,-0.09370107,-0.387688,-0.78715724,0.2529935,-1.2182691,-0.091766626,0.9478198,-0.55530536,0.5760517,0.2741928,0.50765777,-0.87205935,0.8530214,1.0271928,0.39280552,-0.6909998,-0.11620478,-0.26947406,-0.2973768,-0.33718073,-0.5676867,-0.07303066,-0.47511962,-0.71305203,-0.58264667,-0.74435186,0.22209898,0.8922673,-0.61154884,0.2458457,0.33367276,-0.5494613,0.5233533,-0.1799943,-0.80340767,0.47379652,-0.03254363,0.56850916,0.44970924,0.6654504,0.81423795,0.5505941,0.59206176,-0.07908616,-1.0762918,-0.73733246,0.5454545,-0.616302,-0.04470241,-0.43004397,-0.03315955,-0.39419574,0.34705463,0.27533987,0.5303957,0.53036606,1.4906934,0.09267449,-0.15077744,-0.9408011,-0.12254656,-0.20985289,0.35621092,-0.9696287,0.006743721,-0.20755072,-0.5920607,-0.9578777,0.03479084,0.8263443,-0.3981248,0.39952493,0.23377678,0.51899946,-0.5899568,-0.7450476,-0.5116528,-0.13947432,-0.31480432,0.23650764,-0.60538715,-0.13616902,0.3784182,-0.34740978,-0.29800546,-0.4123432,-0.80289847,0.6229994,0.15827784,0.33184817,0.2645838,0.87858367,0.9703567,0.5241289,-0.40471676,-0.97668,-0.64970976,-0.5600935,1.0797509,0.55388415,0.24061088,0.3863999,0.0040734215,-0.21655515,0.086037986,-0.080564454,-0.97705525,-1.3946626,0.054376163,0.5818052,0.19208229,0.40168348,-0.23341513,0.41099596,0.26915503,0.017716661,-0.16863935,-0.53215146,-0.80333537,0.22427532,0.13327082,0.16026741,-0.81717455,-0.8024758,-0.6791265,-0.40742946,0.52206594,1.0354179,-0.27469832,-0.9463719,-0.36426133,-0.5150756,-0.31313592,-0.9553976,-0.8048756,0.17007549,-0.18512149,0.001381422,0.0037086154,-1.213026,-0.34976026,-0.27933758,-0.20952,0.6398185,-0.42354944,-0.3805556,0.1016012,-0.13037097,0.22878218,-0.1032893,0.34621367,-0.27528903,0.23994586,1.0509046,1.5463487,0.18460643,0.5901563,0.030721534,-0.60324425,0.15533616,-0.18817869,-0.7237466,-0.13212636,0.6493217,-0.06943829,-0.24928425,-0.3887437,0.113534264,-0.05952101,0.12662059,-0.5085844,0.87782484,-0.5545175,0.5688523,0.853489,-0.31872633,0.3673165,0.61568797,-0.47651544,0.32072178,-0.59306234,-0.37080076,1.2596151,0.97046787,-0.30664948,0.236442,-1.0237633,-0.16507556,-0.91417557,0.22809221,-0.39594874,-1.1442126,-0.50244516,-0.87556034,-0.05683497,0.1472872,-0.016543813,0.8536052,0.40677002,0.8992711,0.24629182,-0.45207736,-0.749462,0.38069052,0.23143059,-0.48861077,0.03319715,-0.85719186,1.016255,-0.8195927,0.25056434,-0.023208579,-0.18044156,0.4648533,-0.40848452,-0.79241,0.1258177,-0.6478954,0.35256094,0.07673748,-0.049250655,0.48290595,-0.2815252,-0.67037576,0.37983766,0.05218706,-0.18629932,0.15460618,-0.73753303,-0.7440778,-0.9807861,0.052931428,-0.2910507,0.8404089,-0.54624313,-0.20907839,-0.2762117,-1.0713454,-0.929763,-0.73580974,0.5832762,0.12331082,0.28473806,0.71801156,0.269849,0.8094031,0.45758685,-0.098100536,-0.052403167,-0.50699776,0.0021021995,0.15972236,0.003356039,-0.07892185,1.0456771,-0.7033967,-0.7214146,-0.6584518,-0.928127,-0.19219267,0.4776185,0.45706534,-0.2566839,-0.80777687,0.6523913,-0.1805439,-0.32609054,-1.1560768,0.17563386,0.33195525,0.17769483,0.120711826,0.32957873,0.5932199,-0.268055,0.621157,0.7309857,-0.11840458,0.45358896,-0.39022392,-0.25414154,0.15713167,-0.2005585,-0.4352042,0.4212921,-0.6241996,-0.62648404,0.51681125,-0.9036696,0.7343148,-0.31881046,-0.90898556,0.29558313,-0.7112592,-0.2802468,0.24527049,0.43843848,0.18969214,-0.30502492,0.21452583,0.5782505,0.3235582,0.865315,0.372729,0.12842597,1.0096519,0.6695129,0.1067206,-0.5103327,0.6069434,-0.5276796,-0.60374033,0.20684306,-0.81818354,-0.5416143,0.8737509,-0.3891617,0.10747814,0.8148377,0.8070212,-0.9871025,-0.9750352,-0.6218771,-0.62126094,-0.53020567,0.12639725,-1.013736,0.7146965,0.37223655,0.1515,0.9022153,0.27105123,-0.006886216,-0.30962685,-0.14550574,-0.4878718,-0.102192275,-0.31145704,-0.78743756,-0.44429007,0.0018152046,0.6115441,0.37755978,0.12383571,0.47684896,-0.2001456,-0.49858123,0.37872088,0.12741837,-0.28698677,0.19611079,0.075777866,-0.07425797,0.21300058,-0.23849116,0.9074494,-0.65682346,0.26675257,-0.61618906,-0.40047222,-0.6660913,0.8980322,-0.4707043,0.87511873,-0.6040704,-0.076229975,0.50718725,-0.7253688,-0.31975874,0.043692417,0.60295486,0.76819897,0.12853682,-0.7005453,0.49039602,-0.63079685,0.6834842,-0.5739847,0.9876443,0.279235,-0.65026903,0.67339903,-0.90865046,0.33808228,0.5124644,0.83642745,-0.53277826,-0.94659215,0.0025322428,0.33312067,-0.88013583,-0.4905971,0.46430767,-0.55047375,-0.90665346,0.38588378,0.20235723,0.5197773,-0.50817597,-0.4963181,0.33855426,-0.14693397,0.72664523,-0.7327199,-0.23468453,0.75791025,-0.37866807,-0.27954358,-0.21423846,0.66666424,-0.07574797,-0.4985652,0.96069884,-0.8100048,0.7538084,0.5201188,0.32619515,-0.32872677,0.88621485,0.37746406,0.13233173,-0.33749777,0.058529615,-0.4197687,-0.4378459,-0.032661915,-0.5848911,0.46047235,0.5092279,-0.37128067,-0.5456948,-0.623642,-0.5761068,0.08313007,-0.5925418,-0.77781266,-0.56739575,-0.24290071,0.4522084,-0.28782794,0.8366393,-0.56197906,-0.16001584,-0.2476191,-0.020451507,-0.21067482,0.29744262,-0.00606745,-0.10012743,-0.28915554,0.46256894,-0.14924979,0.22155711,0.93031454,-0.12112939,-0.6194917,-0.783566,-0.7301085,0.2895267,-0.18619424,0.16836035,0.38988522,0.1553699,0.45145375,-0.023637794,0.67679524,0.26032388,-0.7100875,0.19180122,0.1859242,-0.86502993,-0.6498132,-0.98478097,0.34408364,-0.29158172,0.10839938,0.19907448,0.3488387,0.57731694,-0.9226401,-0.45290717,0.6017087,0.0615514,0.11460781,-0.30323237,0.3245337,0.70566034,0.66127276,0.49379086,0.92416865,-0.03694448,0.1482228,-0.7250088,-1.2109255,-0.36189398,-0.42008615,-0.67179245,-0.023976795,-0.09809615,0.67156625,0.7793569,-0.30172575,-0.3867429,-0.014678385,-0.49144426,-1.1400371,-0.47848704,-0.06640855,-0.09700523,0.59217525,-0.20029971,-0.9308485,-0.47474343,-0.5207155,0.33731574,-0.59846413,0.80882555,-0.13621296,-0.374269,0.5111666,0.40605885,-0.20103794,0.049279697,0.51820064,-0.18078922,-0.23143935,0.21077321,-0.70163804,-0.08104173,0.027532998,-0.24816021,-0.41898486,0.26146203,0.15444598,0.2875945,-0.4899957,-0.1545308,-0.5555082,-0.81309694,-0.777863,-0.526074,0.66399395,-0.3398792,-0.37030217,0.18928254,0.7813282,-0.49557683,0.20678529,1.1529592,0.38217986,-0.7713354,-0.92186546,0.2681353,-0.70577735,-0.14932232,-0.9529165,0.4030357,0.7797818,-0.43875685,0.29340088,0.27821663,0.054078553,-0.32784346,0.9632377,0.8048747,0.89326996,0.7759312,0.9778382,0.47909674,0.91394615,0.9412142,0.33464712,-0.4125363,-0.17219105,0.9357022,0.89623564,0.23255248,0.042545438,1.209363,0.043180972,-0.35968536,-0.5504351,-1.0766612,-1.0137736,-0.37065554,-0.4240021,0.11884022,0.8007616,0.88308525,0.16264416,0.6469325,0.06852099,0.23650847,-0.03486024,0.030696342,0.578813,0.7613883,0.38693398,-0.11373169,-0.5913427,-0.34113562,0.21924558,0.2624528,-0.4559664,-0.65533876,-0.11831858,-0.09435651,-0.15479362,0.93076664,-0.597375,-0.8962066,-0.7347979,0.15285884,-0.5534104,0.46166486,0.6667351,0.1849351,0.10738888,0.27357075,0.7086724,-0.7929807,-0.57812756,-0.26180485,-0.62125707,-0.6038989,0.14738539,-0.9301526,0.9484832,0.80812216,0.30706367,0.58729374,-0.39853582,-0.27619764,-0.6220527,-0.45427054,-0.6086759,0.12832296,0.5047052,-1.1996906,-0.72731227,-0.458519,0.32126004,0.9804433,1.1099217,0.37482357,0.028894115,-0.23554513,-0.6115184,0.021846307,-0.46175838,0.9560327,-0.6552406,0.29793084,-0.92795813,-0.6824056,-0.9752817,0.18444932,0.8777581,0.0867043,-0.9225879,0.35189497,-0.20293151,0.08109421,-0.37953794,-0.019418595,0.89725626,-1.3407317,-1.4278704,0.2945086,1.3136154,-0.676001,0.09585589,0.012066182,0.031761806,0.7371867,-0.6150818,-0.60756093,-0.34578678,-0.72765875,0.27697203,-0.9349009,0.30351484,-0.04027506,0.2905405,-0.31909505,-0.8247152,0.54296833,-0.84690344,0.42309222,-0.7114637,0.680015,-0.34860218,-0.5108248,-0.59044266,-1.6620787,-1.4613382,1.3239794,0.15577412,0.67468363,0.5098729,-0.42424306,-0.120289445,-0.36786613,-1.0517564,-0.1292309,-0.43960226,-0.09076155,0.4534277,0.9322216,-0.06513811,0.5101872,0.75304735,-0.3784558,0.88331723,-0.17057963,-0.52349013,-0.39722726,0.18188006,-1.2046876,-0.08663221,-1.316365,-0.57764894,-0.29839742,-0.48213297,0.8354251,-0.30036148,0.39475328,-0.46438193,0.38829708,-0.55242115,0.024452738,-1.2289755,-1.2094299,-0.04301901,0.09270936,-0.20698532,-0.34455338,-0.17696069,-0.4072217,0.06495509,0.6999085,0.04557181,-0.17867683,-0.17024375,0.1353477,-0.36107826,-0.41702983,-0.34495473,0.03568151,0.036840703,-0.64571935,-0.40092674,0.33710232,0.33477545,0.26664507,-0.18607166,-0.6197746,-0.4341901,-0.69869345,-0.20979717,-1.2423421,0.38931453,0.47485408,0.7926378,0.64486784,0.020090269,0.57720137,-0.83361274,-0.68934613,-0.88878816,-0.72095937,-0.69093966,-0.7148854,-0.7535516,-0.30017292,-0.106774926,0.033020303,0.21952578,-0.25985444,0.4579667,-0.73633695,-0.259184,0.1254293,-0.21964385,-0.12621137,-0.025159327,0.3956554,0.08325884,0.41964602,1.037538,0.65802234,0.9440316,-0.32214993,0.18599933,-0.6794674,0.41838527,-0.76251364,0.5655218,0.07877254,0.5789653,-0.12368613,0.6145797,0.070414044,0.174011,0.24096917,0.13345861,0.55606866,0.124879874,0.47742224,-0.19265373,0.37880304,0.1426671,0.75197846,0.7478235,-0.40659815,0.47446367,-0.54602313,0.30685124,-0.18612511,-0.5223833,0.85693,-0.79512185,-0.6003964,0.29747933,-0.28846008,-0.5996542,0.20853968,-0.23493984,-0.3156248,-0.069623895,0.16930066,0.041067258,0.15225488,0.7928376,-0.431872,-0.3276928,0.13735329,0.6733952,0.598177,-0.30269986,-0.11582243,-1.0066583,-0.70692176,-0.41667074,-0.6473063,-0.35585234,-0.47491613,0.4356087,-0.53638864,0.8798374,0.36998773,0.87513995,-0.7055422,-0.46084672,0.19173203,-0.3059186,1.2627869,-0.29944915,0.13927901,-0.089308836,0.20454656,0.6350579,-0.079703376,0.097400784,-0.5235683,-0.122233,-0.52588505,0.7324131,-0.41521707,0.15046717,0.5761538,-0.34411305,0.34236524,-0.10826451,0.34923962,0.9009982,0.054516543,-0.94390607,-0.96831113,-0.3756695,0.82949454,0.6309844,0.9005896,0.24561319,0.010360343,0.30966228,1.1288998,-0.22945642,0.5502491,0.045502093,-0.2706926,0.47792137,0.784753,0.48609865,0.6628943,-0.5889256,-0.8109851,-0.21503529,0.28690988,-0.41052285,-0.14374138,0.59061205,0.12410346,0.18291543,0.85050213,-0.46928278,0.38256565,0.087315276,0.2412431,0.18296443,0.5798533,1.267045,0.4037999,-0.39839953,-0.45152596,0.17341277,-0.4431033,0.29329756,0.08354125,0.42837152,0.5735033,0.21835253,-0.61220115,0.11843938,-0.22442707,-0.2468394,-0.67464584,-0.3409386,0.18420058,0.5255501,-0.091453165,-0.30078042,0.11096259,0.9153705,-0.5267962,-0.42440444,0.28960773,0.8867152,0.6961103,0.76909417,0.5910751,0.68538064,0.96289533,0.01857821,-0.15029602,-0.55886054,-0.020398302,-0.22239202,0.17130409,0.14462112,1.0901434,-0.6782748,0.6335043,0.16048594,0.72445184,-0.3845435,1.2744992,1.1852121,-0.44600213,-0.04353748,-0.5260132,-0.032922685,0.5629347,-0.039851956,0.023145927,1.2179277,0.2945164,0.11801718,0.38620713,0.12412496,-0.735892,0.0150307175,-0.049730096,-0.5898092,0.27356467,-0.36820683,-0.21593474,-0.6331851,-0.016704198,0.32689583,0.48198465,-0.5316281,1.3222891,0.0735755,-0.07217915,0.20121184,-0.013971452,0.24171925,0.56705815,-0.7727058,-0.994007,-0.66902804,-0.60798067,0.83629036,0.40652668,0.6144656,-0.43325904,0.9196748,0.052372873,0.6367969,0.45580482,-0.33251718,-0.13849469,-0.60458314,0.15927729,-0.29584214,-0.06895671,0.64804465,-0.26461884,-0.4635561,0.5024447,-0.019487137,0.56939477,0.3232667,0.77579665,0.25334612,0.1166141,-0.60575426,0.6704857,-0.6438249,-0.5354007,-0.42715076,0.31104806,-0.5358918,0.29166117,-0.24055788,-0.19545007,-0.45788565,-1.0121497,-0.02510768,-0.3631849,-0.40291676,0.0744528,0.32511202,-0.31793764,0.19327866,0.67549103,-0.09714555,0.5860725,-0.07575473,0.34665084,0.9124158,-0.39623904,-0.2763602,-0.8715132,0.552951,-0.7561457,-0.658235,-0.042306416,0.49553132,0.6108038,-0.55019623,0.1437811,-0.8507485,-0.12968533,-0.6657988,0.08359159,-0.9915379,0.40789834,-0.76358855,-1.1645074,-0.4533779,0.9759815,-0.10472588,0.10150135,-0.019740561,-0.80951625,0.99650884,-0.56506103,0.66443473,0.50749844,-0.8813461,0.83947647,0.49007928,-0.5798955,0.14561334,0.6576846,0.5318719,-0.29995096,0.15885505,0.3673235,-1.6030798,-0.2677197,-0.8790625,-0.24339347,0.49121663,-0.63449067,0.8491876,-0.53861403,-0.5743718,-0.27071482,-1.1323043,0.55436873,0.4368708,0.31936887,-0.12517631,-0.49833727,-0.3901164,-0.37355712,0.049299084,0.6970136,-0.7675681,-0.05660522,0.77248746,-0.8127601,-0.32445908,-0.16249384,-0.47970304,-0.8394664,-0.1712774,0.28830054,-0.23863207,-0.8217801,-0.023965644,-0.018457515,0.24191195,0.24666055,0.26109576,-0.40097505,0.017724222,-1.2575219,-0.051553085,-0.78463066,-0.43156314,0.81030035,0.23716646,-0.42805552,-0.8308188,-0.7003472,0.5166129,0.5202092,-0.7709895,0.51633084,-0.26874575,0.14002995,0.36232114,-0.61420906,0.45185018,-0.3223431,-0.8511709,-0.32541952,-0.72535247,-0.45759705,-0.87635845,-1.1059265,-0.9664282,0.19201776,-0.010358513,-0.20127584,-0.8507299,-0.81208175,-0.26658735,0.96569264,-0.5928289,0.9019913,-0.887755,0.097726464,-0.84249353,0.90645826,0.7771015,0.094967484,0.8237826,0.48451498,0.9877451,0.54545957,-0.6118872,0.7552383,-0.38700262,-0.6459111,-0.84006304,0.29916078,0.7650705,0.42521918,-0.30255577,-0.48500934,0.37075853,0.043231,-0.4597538,0.78073496,0.71579486,-0.2891947,0.42353368,-0.067044616,-0.4455353,-0.28918523,0.23022854,0.935035,0.48557913,0.7043482,0.94606435,-0.74985754,0.25177968,-0.012197673,-0.78047436,0.34825373,0.68667495,0.30647433,-0.79302144,-0.28428942,0.43354118,0.107284866,0.43792403,0.36320758,-0.6064038,0.35909343,0.04810047,-0.54677284,-0.86132056,0.6281073,-0.8178943,-0.37116688,-0.40153694,-0.037199676,-0.38493502,0.900023,0.27615654,0.3255509,0.72466284,-0.4673918,0.9525498,-0.20030147,0.7536822,-0.87165856,0.28218606,-0.39492175,0.5585164,-0.47118875,-0.05475681,-0.7852852,-0.2555786,0.45728183,-0.23358937,0.42921105,-0.6676382,-0.9661438,0.9073291,0.7894066,0.5027492,0.010790229,-0.7621906,-0.8330837,-0.22283983,0.5516484,-0.40764531,-0.6816277,-0.71528023,-0.46113518,-0.5918099,0.8005605,-0.37917688,0.11527659,-0.12744655,-0.48936632,-0.057238683,-0.07488132,0.22419839,-0.45090824,0.190495,0.69683236,0.10812343,-0.7981753,-0.53765976,-0.41778266,-0.55084646,-0.30999008,-0.73233896,-0.31299454,-0.9349853,-0.18765968,-0.3375132,-0.018546343,-0.48296797,-0.58270365,0.22650883,-0.85364795,-0.60773265,0.28695494,0.16680431,0.79843855,0.85170835,0.79386795,-0.38987446,-0.16325459,0.5567724,-0.13446277,0.046984,0.11481963,-0.05309791,-0.23026778,-0.19165182,-0.114122376,-0.39297906,-0.99065274,0.7166782,0.9839178,-0.7922972,0.6105224,-0.7111062,0.89006466,0.4929268,-0.6052741,0.11385023,0.17690371,0.62143975,-0.26291722,0.8159069,0.16908422,0.45859566,0.79306924,0.5227664,-0.25313598,0.39395383,0.37914628,-0.564511,-0.4656855,-0.16994882,-0.3461482,-0.43593934,-0.44532922,-0.40637815,-0.45408896,-0.1900172,0.32099438,-0.2887768,0.84459734,-0.0042054653,0.13031268,-0.17034918,-0.48524177,0.11074206,-0.0070455545,0.4501014,1.0595816,0.80114245,0.073889956,0.11985035,0.38085052,0.6141973,0.53436947,0.06650441,-0.117140256,0.61859876,0.3790027,-0.2582654,-0.45457655,0.45415232,-0.65829146,-0.40644673,-0.091434486,-0.6935041,0.58834314,-0.8534261,0.20680451,0.38832176,-0.99363786,-0.8868854,-0.49986422,0.23057742,-0.38406563,-0.39343897,0.34130275,0.42718232,0.7908679,1.2408018,0.33779907,1.0773381,0.6240119,0.42728198,0.47527865,0.6267646,0.69328356,1.0220951,0.16345403,0.27875018,0.4136175,-0.9605385,-0.013977286,-0.5910058,-0.100424156,-0.40007007,-0.46218514,-0.22846021,-0.41564086,0.49622926,-0.0954445,-0.8868133,0.03182584,-0.23602784,-0.8435199,-0.50893396,0.2957145,0.6384203,0.28905818,1.2209547,0.27554953,0.77048796,0.60218114,0.9899919,-0.09831793,0.89751744,0.42149168,0.8671819,0.29981592,0.38868946,0.18665986,-0.5821585,-0.15337846,-0.71574193,-0.498504,-0.69447166,-0.76355356,0.70480967,0.9702729,-0.19553502,-0.33418787,1.2229425,-0.78552955,0.25793058,0.27071142,0.048868965,0.65076584,0.63633245,1.0394332,0.88434803,0.27577472,0.48882222,0.49249065,0.76862234,0.64692307,-0.2622473,0.4543809,0.47729963,-0.67613655,0.7056199,-0.00877926,-0.12063771,-0.67851365,0.34363928,0.7813387,-0.11638911,-0.8370374,-0.48995912,-0.21046792,-0.13442796,0.3289317,0.58848953,0.1671963,0.67731,0.27373382,0.6825989,0.8045982,1.2544522,0.7410966,0.50355303,0.5578139,-0.48821723,-0.031599514,-0.0978778,0.4593357,0.32799992,-0.46673808,0.5822807,-0.82827914,0.12527254,0.7422011,0.89894634,-0.06584014,0.9092163,0.27444324,-0.4896576,0.1419835,1.0985485,-0.0091923,-0.35523826,-0.49838358,0.09730288,-0.16995434,-0.5271722,-0.9797122,0.5448966,-0.6471362,-0.3967534,-0.72885346,0.5854526,0.08475612,-0.35293937,-0.061483845,-0.06802139,-0.076195516,-0.59611976,0.83615255,-0.6416188,0.7829257,0.37362218,0.29372212,-0.8724596,0.445723,0.44329643,0.78722095,-0.68532234,-0.5618877,0.27780455,-1.2319019,-1.1913538,-1.0139451,-0.05624949,-0.2975875,-0.24192236,-0.38884068,-0.28405,0.6502562,-0.042125493,-0.23444633,0.51309806,0.11136688,0.9794739,-0.3960004,-0.08453363,0.3295651,0.8234685,-0.51491773,-0.9626438,0.83649784,0.23782523,0.75647455,0.64502007,-0.6963882,-0.5644383,-0.008550391,-1.2542162,0.37327263,-0.6139399,-0.4172485,-1.1871235,-0.55051607,0.45758447,0.41300532,0.05554549,0.39113557,0.08057037,0.3271656,0.6533103,-0.1648995,-0.37392807,0.16446675,0.04805372,0.5523272,-0.28871655,0.54629046,-0.7149697,-0.310374,-0.14872561,-0.20701005,1.0493197,-0.34677747,-1.1765555,0.0036949168,0.09755163,-0.6411274,-0.64669484,-0.45918673,-0.83938956,0.72517365,1.0487318,-0.29083827,0.19547671,0.3464537,-0.17875527,-0.19861057,0.4785093,-0.29049292,-0.39828095,-0.41631255,0.37698922,-0.017111607,0.8543883,-0.91175425,-0.018792339,-0.7676975,0.74950814,0.2894477,-0.4785629,-1.5616205,-0.09950088,-0.90856034,-0.64237195,-0.36448288,-0.42229885,-0.022696566,0.11072895,0.03032827,0.21656057,-0.17300844,-0.29316363,-0.040026676,0.45854583,-0.24669242,-0.38831156,-0.87768704,0.43517387,-1.0998561,-0.86887074,0.109903365,1.1490594,0.08286291,0.50070924,0.6347645,-0.23485515,-0.900822,0.12964855,0.39264858,-0.32315394,-0.09844115,0.27069137,-0.61681414,0.45120364,-0.40609246,-0.68467176,0.5761077,-0.14144179,0.115939185,0.5476678,-0.61337775,-0.11175668,-0.52242035,-0.1730259,-0.7665462,-1.167239,-0.6780758,-0.07420495,0.55806345,0.15630578,0.42017356,-0.9535446,-0.45184317,-0.009222374,0.05323523,-0.29481542,-0.058230437,0.17029175,0.012483538,-0.10506119,-0.21977323,0.4314585,-0.011791059,-0.29831168,0.29930335,-0.62475383,-0.609538,-0.23019427,-0.3663253,0.12334774,-0.49018022,0.86009574,-0.7618774,0.268214,-0.13575108,-0.0013200828,0.025345748,1.0413011,-0.3042829,0.45563436,0.2695912,0.7718251,0.30917406,-0.48998025,0.49949795,-0.22584334,-0.80874294,-0.019885413,0.15498376,-0.17863078,0.07029044,-0.4209661,0.44806734,-0.3164289,0.18425527,-0.34216958,0.41704947,-0.7722067,-0.11092662,-0.9687976,0.72247857,-0.09922013,0.13544457,0.1182018,0.9723055,1.1530418,-0.9416681,0.014062774,-0.46661717,-0.037576362,0.44852483,0.339891,0.20194767,0.64934283,-8.0157677E-4,-0.24992473,-0.24173866,0.058279898,0.23855312,-0.35064486,-0.47535267,-0.028357074,-0.7310873,-0.07261007,-0.18742462,0.17024519,0.46943197,-0.11939832,-0.12290565,-0.2114761,-0.3061696,-0.16578501,-0.32384777,0.76415306,-0.018807035,-0.1838663,-0.88990545,-0.16648696,0.45186436,0.23564456,-0.781995,0.7625887,1.0141255,0.6123587,0.76366806,-0.258012,-0.21650788,-0.2739552,0.4608201,-1.0043299,-0.4927869,-0.7252769,-0.27258864,-0.31226328,0.619083,-0.12451832,0.26498288,0.018214496,0.89489067,0.55867755,0.9566639,0.022391468,-0.8806141,0.9188098,0.64643717,0.7535255,-0.04547647,0.95992696,-0.80944943,-0.17647777,0.6917853,-0.41959205,0.08710548,0.0058739553,0.24273486,-0.57356226,-0.350947,-1.754104E-4,0.39156625,0.32331404,0.021370616,-0.35827863,-0.60049665,0.32845128,0.7286474,-0.06426117,0.39644423,-0.111257024,-0.32302698,0.73935246,-0.64373434,-0.11380274,0.5201975,0.40936956,-0.6287339,0.7436249,0.44494805,0.3811042,0.86317605,0.5860642,-0.6302501,-0.35060015,-0.95806515,-0.0016801069,-1.0729233,-0.62927717,-0.52338964,-0.5605142,-0.2699796,-0.28927228,-0.50228196,-0.6386486,1.0796852,1.0464379,-0.38021007,1.0427117,0.53167933,0.71824473,-0.13715433,0.43976235,0.9488232,-0.17238986,0.4385393,0.58382416,-0.58552766,0.8032205,0.455574,0.87944055,-0.35141563,0.65285116,0.0834814,-1.0243062,0.3858038,-0.013209096,0.24415907,-0.5477869,-0.35600236,-0.6753163,0.26750377,0.83138454,-0.7390366,0.36454657,0.1280422,0.3664428,0.08576421,0.16916712,0.37158445,-0.34769958,0.9483193,-0.09549207,-0.41657636,0.8653501,-0.45792726,-0.1445583,-0.70814335,-0.4558897,0.030968599,0.19162439,0.5343173,-0.024825292,0.9913754,0.36179,-0.11285816,0.28687724,0.858697,0.27254385,0.057405997,0.24708325,-0.08103847,0.3718916,0.54387593,0.9965265,0.825769,0.9739067,-0.75507414,-0.41065514,0.7203462,-0.29224727,0.59748155,0.39844656,-0.8962712,0.7529114,0.5906523,-0.0041564284,0.47018334,0.02576897,0.30955663,0.81232953,-0.13654824,0.2247232,0.5327623,0.03745036,-0.06790916,0.08787623,0.49916482,0.46894196,0.19986913,0.54934937,0.7342414,0.7689953,0.04863208,0.4755535,0.33347094,-0.56876135,-0.88307154,0.2238126,0.19944286,0.1242777,-0.15964212,1.0031397,0.34080562,-0.08923063,1.1882116,0.021221753,0.50945556,0.2797004,-0.023182778,0.32700667,0.35597363,-0.23166917,0.36093634,0.32026204,1.1472107,-0.04709305,-0.5703024,-0.30192712,-0.93678623,0.7079154,-0.11965299,0.003440067,0.8749598,-0.0679937,0.66063035,0.33795,-0.36036637,-0.18552215,-0.8001396,0.38634148,0.5093276,0.99961513,-0.25187322,1.0576651,0.8237474,0.5931705,0.7842565,1.0428493,0.7631877,1.22746,0.77676207,-0.07358839,-0.51365125,1.1117033,0.5895546,0.50927484,0.9283418,-0.9301849,-0.0629176,0.18793988,0.6733495,-0.41906595,0.27969074,-0.91997254,0.18755198,-0.8815346,0.3463008,0.08646504,-0.40533975,-0.78145635,0.8453685,0.19277151,0.47435185,-0.6224169,-0.021484377,1.2911631,-0.349031,-0.5946398,-0.11674781,0.044760644,0.87533987,-0.50127125,-0.63889885,0.78504264,0.85652894,0.10007739,0.47730577,-0.85370034,0.12676096,0.030027986,-0.39016718,-0.9211513,0.31191814,0.19024003,0.7667234,0.46204805,-0.8794794,0.27436602,-0.47505754,-0.6354238,0.24354601,-0.46323258,0.51740676,0.8828069,0.6762985,-0.64934146,-0.27820706,-0.6310595,-0.43716854,-0.52758735,-0.20982301,0.43715966,-0.52387536,-0.4136036,-0.17036927,-0.514092,-0.834428,-0.7647114,0.6148846,0.64040506,0.23497438,0.5464442,0.0155840535,-0.0019261267,0.9585642,-0.6912531,-0.40852422,-0.14513502,0.5045174,0.8980181,-0.24854721,0.15286869,0.15528664,0.29289106,-0.30560225,-0.023117654,0.9771761,0.07721486,-0.64771867,0.736818,-0.9894764,0.5306443,0.074009895,-0.617452,0.8440683,0.332003,0.36623836,0.13155933,0.64681315,0.23110393,-0.844705,-0.62116754,-0.079546,-0.009656825,-0.6920695,0.703775,0.22262307,0.33799765,0.81683683,0.15070747,0.12800354,-0.4635081,-0.13515645,0.16876715,0.66612077,0.5118712,-0.34431747,-0.05431341,0.6764922,-0.102980986,0.52019465,0.1333859,0.1981411,0.5240238,-0.9034347,0.25504646,0.4829873,-0.3135052,-0.38932902,-0.27786225,-0.91596013,-0.71219254,0.18732738,-0.8175429,-0.3205851,-0.08371953,0.8435987,0.36244068,-0.462939,1.0021874,0.11789123,-0.35662776,1.181163,1.2105324,0.26482454,0.3779558,0.24448307,0.72162974,0.7900607,-0.6296111,-0.9618404,-0.7857308,0.106088914,-0.5984943,0.05069236,0.3657659,0.02073779,-0.82265127,0.4606343,-0.86379737,-0.4655148,0.4925514,-0.67958343,0.0046937405,0.054284897,-0.45039672,0.23927885,0.47569457,0.56175387,0.3467741,0.29116434,-0.025392802,0.07196259,-0.75578105,-0.10015516,0.077234276,-0.21725117,-0.3964232,0.58931965,0.23844218,0.7501553,0.60616386,0.31953326,-0.6368416,0.6722868,-0.019904308,0.6464651,-1.0723213,0.031117268,-0.83749074,-0.34727415,-0.62905663,0.13546142,-0.03469073,0.39155796,0.056318138,0.55181843,0.060334425,0.5293265,-0.24537362,-0.6001788,-0.21546775,0.7487866,0.60562986,0.69749516,-0.1429759,0.32808867,-0.6137652,0.5745593,-0.5609607,-0.9810163,-0.49540475,0.28180268,-0.30028954,-0.8528724,-0.02710586,-0.39668486,-1.0635601,-0.117867604,0.19711208,0.17246528,0.38297224,0.033699248,0.9284711,0.20072584,0.20903799,0.37132245,-0.14777224,-0.039699547,-0.57055664,0.23270637,0.94262284,0.5416277,0.33550197,0.9400954,-0.5959448,-0.30897,-0.869437,-0.9187543,0.83453095,0.27699187,-0.839181,-0.2599242,0.101696774,0.3515477,-0.11896498,-0.668335,0.22815457,0.40553865,0.21812168,1.0471163,0.9951615,1.0945684,0.5068095,-0.08281539,-0.5751507,-0.079985626,0.37012002,-0.21516302,-0.91472334,-1.0104668,0.79920524,0.39999974,0.37003502,-0.3014395,-0.6776799,0.75218225,-0.102626584,-0.49344984,0.39341033,-0.8781069,-0.1656709,-0.07726182,0.18791494,0.26794305,-0.14657223,-0.04623127,0.15473135,0.58039576,0.89688945,0.5237872,-0.18624012,-0.112429164,-0.35805368,-1.0097727,-0.29762125,-1.0015329,0.50677466,-0.95683163,-0.022182798,-0.7077067,-0.27893946,0.8429898,0.9524659,0.9532328,3.1599888E-4,-0.36185429,-0.69385266,-0.7360217,-0.40050173,0.5236977,-0.21556398,-0.40107456,-0.5508932,-0.94743335,-0.3786605,1.0066952,0.42816213,0.19305518,-0.6701454,0.38923758,0.5020702,-0.6902639,-0.3967095,-0.7389907,0.001664999,0.4806026,0.1303046,0.32497534,-0.73110175,0.75132775,-0.46554577,0.63022035,-0.49839702,0.05776973,0.27394548,0.22453536,0.109744556,-0.11733843,0.026166176,-0.6899005,0.075311296,-0.43648884,-0.34161326,0.7766314,-0.1406412,0.36243764,-0.26474312,-0.6411381,-0.6297486,0.044989567,-0.7916429,-0.8175253,-0.31951892,0.07969962,0.34263575,-0.59817195,0.33351982,-0.26877972,0.4844647,-0.3384492,-0.8462121,0.9356764,-0.4702332,0.5015074,0.43947673,-1.0795943,-0.75564253,-0.31402734,-0.22020355,-0.66375005,-0.42298305,0.13560039,0.8540976,-0.37237355,-0.2185372,0.57860535,0.36457992,-0.7813286,-0.91756105,-0.64482474,-1.2163701,0.5018643,-0.9772335,0.7228934,0.525708,-0.21468802,-0.67303663,-0.7464399,0.16829327,0.41735914,-0.57050854,-1.1610718,-0.50029165,-0.03301498,0.93914545,0.10074284,-0.23846947,-0.21592787,-0.9027391,-0.05382877,0.13403305,0.8419359,-0.059672873,-0.53204757,-0.08771693,0.4047149,-0.782763,-0.31044737,-0.44117507,-0.0090884,-0.31813926,0.22930598,0.8870211,0.30672282,0.37970644,-0.26677233,-0.5096139,0.3477059,0.6409314,0.34750983,-0.5025904,-0.68977714,-0.06478578,-0.52624965,0.36332935,0.20001058,-0.42892012,-0.35542205,0.8334793,0.44871128,-0.28436866,0.10584438,-0.18841837,-0.69180375,-0.036233157,0.3746751,-0.49544626,-0.7280709,0.21403262,0.08976016,-0.10570806,0.3299834,-0.3466056,0.84427893,0.57611656,-0.21986018,-0.20866062,1.0326394,1.2373964,0.8417583,0.54485613,-0.58883476,0.14554527,0.04745747,-0.11238745,-0.9102374,-0.013045758,0.25589886,0.6965876,-0.82239586,1.1521332,0.81317043,1.125139,-0.8322368,0.115773864,0.47823203,0.13113984,-0.18973,-0.65876603,0.995479,0.62975603,0.6758424,-0.12996182,1.1760122,0.34540746,0.8857604,-0.33868563,0.14242733,-0.20550965,0.5939274,-1.1079597,0.33859846,-0.64958185,-0.49128658,0.33404487,-0.10262939,0.038884338,0.6695268,0.82433873,0.29622775,-0.52378505,0.46483007,-0.83028185,-0.6787815,-0.66741127,0.005304807,0.33327985,-0.7690667,0.5478122,0.79064775,-0.067569144,0.82965225,0.42919946,-0.07923951,0.60270166,0.41836938,-0.23350208,-0.15767348,0.123260744,0.12201967,-0.36773866,-0.7208554,-0.38883302,0.4562376,0.20857264,0.7175142,0.4818399,0.7164131,1.291919,1.055678,-0.6975412,-0.40915564,0.24353778,0.26536492,-0.51266026,0.24145934,-0.87394136,0.6742654,0.5749588,1.381635,0.13066618,0.28782967,0.18086392,-0.29285243,-0.46691477,0.4097967,-0.1032888,-0.79644835,0.2460314,0.8781443,0.95518917,0.3626545,-0.16691078,0.3284373,1.5383583,1.4815167,0.25187036,0.62804186,-0.876216,0.96435,-0.29154572,-0.72945714,0.020867545,-0.46133792,0.36971226,0.51018775,1.0647839,0.5801283,-0.029746678,0.23118286,-0.28322598,-0.54736054,0.34772515,-0.4543163,-1.3026161,0.08124149,-0.37860098,0.12373656,0.2178316,1.2207361,1.0873848,-0.585027,0.77740586,0.16867752,-0.54316473,0.78194845,-0.11895908,-1.0099424,0.98256433,-0.8366352,-0.3565508,0.55957353,-0.7818186,-0.3910186,1.20201,0.9417005,0.28397512,-0.26294306,-0.85788864,-0.2746926,-0.11566992,0.4327445,0.4752596,1.063661,1.3627546,0.5455482,-0.23995326,0.054010127,0.91107017,0.8740792,0.43976176,-0.7953693,-0.80527645,0.009060191,-0.09702024,-0.38207948,-0.9830552,-0.73482865,-0.7987532,-0.72545344,-0.5714953,-0.5495697,0.89936423,0.27999642,-0.3796329,-0.3903998,-0.18617046,-0.83933604,-0.8421214,0.03587272,0.022511072,-0.18449642,0.045843136,0.93464154,-0.119836085,0.39477623,0.11114282,0.68909264,-0.09096016,0.5741941,-0.42688894,-0.83042943,-0.47094476,0.015525,-0.4299256,0.5004703,0.4810587,-0.83609134,-0.6454771,-0.6613574,-0.5090757,-0.16619858,0.8903406,-0.75748146,0.10829686,-0.9299469,0.066281684,-0.4350141,-0.53137314,-0.5523594,-0.56614155,-0.30501065,-0.082887575,0.010330413,-0.018228367,-0.15796277,-0.7442306,-0.16394068,-0.3095304,0.7646676,-0.50661874,-0.3598179,0.46714962,-0.8290297,-0.87398237,-0.87273884,0.13470341,0.8679553,0.79208523,0.2156504,0.68583244,0.43611345,0.71069306,0.4682841,0.4578193,-0.7537496,-0.22017542,-0.522433,-0.75869644,-0.013401143,-0.81442654,-0.695439,-0.72071415,-0.9839884,0.4409556,0.46733364,0.7247555,-0.12369553,0.4694632,-0.9970328,-0.32226992,-0.44570425,0.44632208,-0.2685038,0.70086306,-0.27664143,0.044415794,-0.082110874,-0.18913533,-0.9598731,0.31420222,-0.16671915,-0.46436146,-0.5235759,0.089530826,-1.4001446,-0.041091926,-0.17509563,-1.0419104,-0.49947602,0.5919769,0.35825735,-0.63522696,0.006635463,-0.5392538,0.30196825,0.9048645,0.34339947,-0.429484,0.45819283,0.69482446,0.76637626,-0.8865999,-0.8237562,0.42873985,-0.6864873,0.20556909,0.6695062,1.1128235,0.042861342,0.4378095,0.074401625,0.26893866,0.53862786,-0.8240561,-0.0717103,0.39841193,-0.345124,-0.45410463,-0.40909424,-0.108566664,0.22320955,0.74188375,0.67858565,0.88663197,0.780819,-0.9915245,-0.09445584,-0.26339698,-0.2023254,-0.98388416,0.58453125,-0.13769984,-0.6710683,0.85656506,0.5935677,0.07744018,1.3128356,-0.15481362,0.44096005,0.16184568,0.096131854,-0.72238636,0.4032695,0.1646883,0.19209842,-0.3826431,-0.53195256,-0.4737382,1.058548,0.4532122,0.74739915,-0.5474402,0.47923532,0.9744973,0.30584836,-0.8828847,-0.092476666,0.5494888,-0.946376,0.5084996,0.900895,0.26590723,-0.68923867,0.7990283,0.8068331,0.7138497,0.24417111,0.62791723,-0.38175488,-0.22233874,-0.44123548,-0.1083715,0.16873029,0.38484508,0.07063301,0.59588695,-0.5783114,0.024740903,0.762627,0.26974165,0.6165908,0.40018022,-0.1648168,0.2932577,-0.4038645,-0.42731488,0.027585268,-0.5060962,0.3890676,0.24583045,-0.32320994,0.46533412,0.7448016,0.08799257,-0.6991302,0.5958649,-0.37252146,-0.16119668,-0.32801667,0.9829489,0.18870981,-0.8272214,0.6281745,-0.5646033,-0.013846331,-0.6975308,0.24843912,0.67196095,-0.9678582,-0.863201,0.30238497,-0.7610525,0.78267336,-0.9037529,0.52432716,0.3526802,0.8523654,-0.5165051,-0.73446476,0.712487,-0.322626,-0.7792885,-0.7464316,0.9113794,-0.9709162,0.52026105,-0.3560642,-0.3364215,0.19732428,-0.73711,0.4559313,-0.9398726,-0.8309358,-0.37057745,-0.46863258,-0.39752382,-0.08877438,-0.8610666,-0.475641,-0.2283997,-0.0066639185,0.66076565,-0.88811857,0.06415738,-0.80771005,-0.8235325,0.5769572,-0.47129744,0.51438427,-0.68715966,-0.53199667,0.94033486,0.554784,-0.32391956,-0.16469008,-0.51182026,-0.42495573,-0.39438632,0.0794424,0.06710857,-0.89266706,-0.12641248,-0.371608,-0.25493753,-0.8456426,0.037326932,-0.83523715,0.7681439,-0.8373687,0.8512482,-0.5187881,-0.3601756,-0.34704375,0.54441947,0.16620141,0.6302921,0.5222501,0.054899916,-0.21674287,-0.47645974,-0.4427704,-0.034571644,-0.70973474,0.19839826,0.29740253,-0.6202507,-0.29590416,-0.5522766,0.35661995,-0.48662645,0.5081249,0.65473884,0.097254574,-0.49779254,-0.890512,-0.051026583,-8.1437826E-4,-0.69065773,-0.30990452,-0.086879164,-0.015819643,0.47040722,-0.094346985,0.9755379,-0.733169,-0.16580568,0.6479702,-0.6888004,0.11194281,-0.10424891,0.007472464,-0.4717641,-0.6281967,-0.12794504,0.22908433,0.2722549,-0.36036658,0.5805989,0.08317176,0.10246314,-0.2594497,0.85578287,0.75900626,-0.8944802,-0.41965964,-0.54903525,-0.14707655,0.97435915,0.7391151,0.7222743,-0.6063527,0.6409676,0.3288672,-0.85098815,0.0933483,-0.3793115,0.90210545,-0.04088938,-0.1377279,0.2518867,0.24829881,0.12731928,0.18144715,0.21969989,0.063190155,0.5875818,-0.04729716,0.23665597,-0.64482594,0.10003956,0.09160492,0.53186774,0.74016535,-0.36132753,0.75798035,0.071206965,0.4886723,0.4604438,0.12026774,-0.73722404,0.60513496,-0.08212192,-0.21146534,-0.527614,-0.29401284,0.049175546,-0.23018937,-0.18264957,-0.3963086,-0.62495136,0.18358558,0.13928472,0.09225401,0.99300224,-0.19392972,0.6084858,0.32381058,0.036826108,-0.8359449,-0.006872475,0.90344685,0.9496494,-0.7846285,0.49544984,-0.5272964,0.55497825,0.09229667,0.67933387,1.1049819,-0.17687425,0.45134082,0.36954728,-0.01702962,0.31589884,-0.4329049,-0.45591927,0.5611539,0.4128279,0.3728507,0.321475,1.0039512,-0.18392682,0.86744994,0.13892537,0.48571467,0.29194635,-0.7478899,-0.17697358,-0.7060799,0.7451066,1.0515528,-0.8706653,0.8754942,0.48495933,0.017909778,-0.32098687,-0.66430134,0.39026174,-1.1754302,0.1665244,0.0063761086,-0.5167096,0.53981113,-0.2771065,1.1651583,-0.19956264,0.9568052,-0.17719403,-0.5061927,-0.24741854,1.031165,0.58691114,-0.6002929,-0.2471521,-0.732476,0.6830125,0.8997034,-0.81298167,0.62909293,-0.72825974,0.6935951,0.0936879,0.9154896,-0.33613205,0.44746792,0.24989787,0.25922245,0.21930471,-0.44158542,0.18934196,-0.3054417,0.45991,0.32796884,0.7999847,-0.542217,0.13985243,0.33322224,-0.3045608,0.8946267,0.3865169,-0.26434886,-0.33570054,0.28541356,0.20961648,0.28184345,-0.7700435,-0.03037789,-0.5194421,0.28251308,-0.34202182,-0.4904433,0.33124822,-0.027437598,0.26336083,-0.79201174,-0.05840333,-0.39757153,0.3034907,0.12908621,0.26034492,-0.07488419,0.03996328,0.744316,0.14628762,-0.32684654,0.5013179,0.73292124,0.12314239,0.23662753,0.72975016,-0.98001623,0.8896881,0.97951126,-0.51875705,1.1838034,0.6249456,-0.08029076,-0.49038622,0.70423025,0.013373547,0.4166714,-0.2301204,-0.20424671,-0.15256369,0.25075287,-0.30577913,0.3900406,0.3350596,0.37408227,0.645866,0.40026274,0.21999891,0.0725127,0.65128624,-0.51395476,0.62842584,0.4375033,0.57246,-0.5384351,0.9324214,-0.38191694,0.380448,-0.4033736,-0.67111105,0.20874299,-0.4345458,1.0807639,0.9046385,0.39217985,0.9573737,-0.0044107926,0.030649878,1.8845239,1.3436797,0.4191453,-0.29632246,0.48147786,0.1710438,-0.3925685,0.8492277,0.9640438,0.20917709,0.007727433,0.6845502,-0.6398831,-0.776947,-0.30725616,-0.9202113,0.6477386,-0.6072587,-0.23681338,-0.0565253,1.3215587,2.0313935,0.8100155,0.8905017,1.0226067,0.80935985,0.6446012,0.9019364,0.6216292,0.4696406,0.58963203,0.7352367,0.38205495,0.46049175,-0.221065,0.8997746,-0.20964143,0.8391927,1.4018837,0.08979352,-0.59775263,0.76508266,0.028572533,-0.90014464,-0.67631465,0.856506,0.43621054,0.119090535,1.6364998,2.2837925,1.0848204,-0.23422065,0.026428016,0.45809588,0.7065591,-0.17908071,-0.40246254,0.11450697,-0.3186371,0.3223167,0.16867551,0.49778324,0.46688443,-0.119207196,-0.1451916,-0.56261426,0.7161811,-1.013647,-0.10591228,0.75468004,0.87456036,0.57383317,0.04014576,-0.9346948,0.8957535,1.2858405,0.3165082,-0.19641167,0.008335644,-0.8388782,0.3281185,0.19574793,-0.40981397,0.1933495,0.29815942,0.24194501,0.7020612,0.3649599,0.91168094,-0.24914269,-0.4156119,0.51901466,0.46835452,0.54071456,0.45799568,0.7361853,0.18626067,0.1512302,-0.41288722,0.40314144,0.8151826,0.21109332,0.08048977,-0.25172916,0.45918638,-0.8532126,0.35454482,0.66607463,-0.9008367,-0.056151584,-0.22091888,-0.036199957,-0.60892725,-0.73780334,0.6198184,-0.68697715,-0.3105615,-0.14471684,0.7456541,-0.54763484,-0.13822792,-0.089371726,0.15261756,-0.11833433,-1.4593822,0.23806445,-1.0220164,-0.095200315,0.87429947,0.5001584,0.33802933,0.8911966,-0.2906178,-0.6369985,-0.46409592,0.3047291,-0.036182404,-0.40530074,-0.37717447,0.34855983,0.18755704,-0.7065783,-0.43898115,0.14316604,-0.4462785,0.6116386,0.04885089,0.46197915,-0.9024102,-0.34719688,-0.13908485,-0.65730995,-0.21781582,0.17287153,0.92114484,-0.50202966,0.37470707,0.21045727,-0.7984643,0.40275455,-0.7554148,0.2756108,-0.0973245,-0.15230183,-0.31331918,-0.062323738,-1.2855078,-0.44716448,0.12162136,-0.25359243,0.20548275,-0.3427091,-0.1156082,-0.2980307,0.030593388,-0.9162955,0.1554564,0.3805224,-0.44382778,-0.91798586,-0.13289635,-0.028381601,0.2570431,0.80635434,-0.6931661,0.30214962,-0.14696707,-0.6790692,-0.35613424,-0.77822226,-0.36278662,-0.04112931,-0.16562882,-0.35043687,0.764886,-1.0172458,-0.15337881,-0.24290133,-0.46135238,-0.42037016,0.70171773,-0.31300032,-0.34859318,0.2939221,-0.9101954,-0.4390895,-1.063345,-0.9055223,-0.40899014,0.23118642,-0.26874897,0.5110997,-0.21165952,-0.7626702,0.026779091,0.21335502,0.7371414,0.3823296,-0.17642038,-0.5085291,0.50137097,-1.1415521,-0.20284817,0.22114812,-0.3482915,-0.697968,-0.4117548,0.124331705,-0.1814339,0.34770817,-0.5738571,0.40134704,0.10623889,-0.5281543,-0.725288,0.16478841,-0.20182243,-0.5935409,0.71723324,-0.51368916,0.11605973,0.006063172,-0.5369603,-0.0824509,0.48188058,-0.8369313,-0.5295121,-0.14713117,-0.44522217,0.115349434,-0.72833544,-0.07633125,0.32445842,0.07172694,0.14567189,-0.49410072,-0.12603265,-0.35165516,-0.12711194,-0.4641168,0.1639924,0.10405883,-1.8658395,-0.36924046,0.5888361,0.6553151,-0.29191223,0.6336029,0.119359896,-0.5394463,-0.20716861,-0.05049257,-0.32757974,0.35717958,-0.2582722,0.4097516,-0.5329003,-0.5056376,0.16682622,0.34224257,-0.64170784,-0.58737564,0.93023443,-0.7331513,-0.48843056,-0.31201056,-0.9290111,-0.004469976,-0.8125688,-0.63961685,-0.18599531,-0.54799664,0.68936837,0.017676244,-0.08204393,-0.59517133,0.3377791,0.11158678,0.44814336,-0.2588702,-0.21712714,-0.4227564,0.16645145,-0.32735002,-0.18380837,0.2764734,-0.6732756,-0.31901556,0.5934822,0.39579085,-0.27584866,0.6531512,0.66204876,-0.8938611,0.052069187,-0.58842945,-0.3665625,-1.5400017,-1.2821604,-0.25305277,0.12950732,0.06116936,0.58538395,0.26164842,0.8734957,0.7131393,0.9191224,0.5087613,0.10061664,-0.49283397,-0.17642628,0.4359128,-0.7285776,-0.20150247,-0.6107675,0.46015516,0.37250242,0.053872496,-0.2677356,-0.48765168,0.76503086,0.6488054,-0.2584317,-0.42047814,-1.2047951,0.087680556,0.40077743,0.1361152,0.011159513,0.5413846,-0.04732883,0.26790893,-0.7806836,-0.99587256,-0.075973876,0.5121048,0.88884443,1.3001438,-0.20406775,0.35580742,0.1824054,-0.08787281,0.8583183,0.12549134,0.50971866,0.45693225,1.1810054,1.1665827,0.10389133,0.17522931,0.417767,-0.49726257,0.10846689,0.028238362,0.9281709,0.61577123,-0.95706207,0.36682123,0.047147036,-0.3543973,0.0022119284,-0.6766172,-0.10392922,0.27482522,0.6223922,-0.7224655,-0.013050162,0.52283996,0.62698716,1.0562942,0.26777762,1.0139799,0.13010195,-0.26309443,0.8005191,-0.34440205,0.91130966,0.18001097,-0.23408952,-0.12533219,0.43479797,-0.7791563,0.84505194,0.52075183,-0.21057156,0.5875583,0.8163365,0.44740534,-0.56902254,0.3932252,-0.44300723,0.9745812,-0.718624,0.88566333,-0.5515388,-0.4284955,0.9200513,0.40755245,0.36256787,-0.71729153,0.23124982,-0.25606054,-0.23404075,0.53762716,0.20303005,-0.31288406,-0.35294327,0.045849737,-0.63710016,-0.060844213,-0.16129147,0.21405761,-0.43771976,-0.26818508,-0.19516009,0.50858545,-0.7419144,0.85790956,-0.15015984,-0.014142852,0.2718549,0.77372366,0.7933179,-0.22316399,0.21653397,0.42532992,0.7686454,0.5959718,-0.64114296,-0.7226117,-0.88768697,0.603718,-0.16728649,-0.3476383,-0.11502682,-0.9964326,0.5384718,0.96572024,-0.10801728,0.17343688,0.18462205,-0.704077,-0.63818026,0.538327,-0.72058225,0.19967425,0.23516667,-0.52860427,-0.38892013,0.9983057,-0.8733747,0.47274852,0.42210388,0.61775756,-0.70092505,-0.36443081,-0.7813753,-0.55592054,0.7324051,0.9670609,0.19956946,0.84856856,-0.6568614,0.5753857,0.8303735,0.09867525,-0.27963108,-0.19138062,0.5293107,-0.7787105,0.3627088,-0.40472203,-0.20412683,0.050257683,0.33255363,-0.06478149,0.17972831,0.16636428,-0.5176565,0.1798646,0.26868108,-0.26564667,-1.018089,-0.80556166,-0.18921539,-0.60331845,0.7655478,-0.27947915,-0.5764397,-0.075943656,-0.4812553,0.48404413,0.61592954,-0.566594,-0.19653979,-0.31392604,-0.65569615,-0.86959773,-0.3896448,0.26440227,0.048757434,-0.37287626,0.989147,0.83987147,-0.36088985,-0.58047664,-0.47594574,-0.98135835,0.0022922554,-0.8609603,-0.121140875,-0.3860858,-1.0008574,-0.93597907,-0.11429075,-0.6417471,-0.069916256,0.5167862,-0.10285875,-0.6393198,0.24703826,0.07325217,0.16196495,0.22703324,0.90331197,0.86227643,-0.5500326,-0.38802183,-0.5837563,-0.5732116,-0.93545514,0.73025525,0.33112654,-0.64242655,0.14009103,0.030094882,0.20599522,-0.10319659,0.10522814,0.17073755,-1.0022811,0.15570767,-1.5295601,-0.6681861,0.4661867,-0.59515345,0.21607743,-0.6736447,-0.055278227,1.0777694,-0.46641868,0.095955156,0.97632563,0.9950804,0.68886447,-0.5571469,-0.87891173,-0.5865848,0.13676473,0.4870066,0.38586628,0.4534781,-0.8481739,-0.14573666,-0.011060359,-0.942964,-0.01122622,0.24090163,-0.8792313,-0.2518016,-1.3001142,-0.9847546,-0.916956,-0.3950117,0.3875042,1.1628466,-0.3102588,-0.2599483,-0.1282452,-0.38565686,-0.6518818,-1.0046535,-0.3624635,-0.4811725,-0.6498223,-0.26774392,0.3716509,-0.8672909,0.4039592,-0.4865433,-0.035605155,0.47909242,0.27639815,0.4012107,-0.28186247,-0.16535221,-0.6747502,-0.7831065,0.15816458,-0.70660144,-0.8226413,-0.783276,-0.25901166,-0.44240737,-0.96804136,0.10688712,-0.20140693,-0.012848822,0.7401977,-0.19699696,-0.83096486,0.21931005,0.024298338,-0.57140476,-0.8575682,0.744377,0.5332326,0.012671399,0.3148542,0.6312589,-0.07915993,-0.19794236,0.21999225,0.6110085,-0.66177595,-0.17994699,0.43111652,-0.55549234,0.728105,-0.45538723,-0.02192075,0.12518334,-0.27600667,0.16618219,-0.8002524,0.47097224,-0.63022393,0.7632462,-0.7104087,0.63515234,0.9746922,0.032658715,-0.6548983,0.03523116,-0.40381256,1.1257733,-0.34107736,0.32797405,-0.39476573,1.0797334,-0.4707757,0.5891131,0.18347633,0.20853958,-0.6821962,0.39592847,0.47767186,-0.45497426,-0.32563242,0.22058603,-0.502487,-0.037212167,-0.14822936,-1.142795,-0.54032266,0.06891007,-0.9199835,0.28393003,-0.9425369,0.94834155,0.15200418,0.2933263,-0.60611254,-0.8755679,0.19462557,-0.21867344,0.09105889,-0.50449014,0.1263208,-0.5515999,-0.33195403,0.12780716,0.08802294,-0.37765008,-0.17510381,0.69172496,-0.19604634,-0.0100263385,0.052019134,0.26896626,-0.47094813,-0.08071521,-0.6881951,-0.5089867,-1.007839,-0.48084715,-0.581979,-0.19976383,0.032725308,0.087784566,0.12679584,0.3242692,-0.4503576,0.39354128,0.10285796,0.30962986,0.39717263,0.2560023,-0.079406075,0.22789066,-0.43091083,9.187562E-4,0.21595152,-0.62881374,-0.0037859986,-0.45905986,-0.50771034,0.61053914,-0.9179484,0.16098002,-0.1224334,0.34925455,-0.61946636,-0.72067505,0.6375646,0.64871335,0.5861536,0.18503377,-0.016977355,-0.56774926,0.2545768,-0.601557,0.5056326,-0.35380393,0.70343345,0.0839392,0.6514742,-0.5975749,0.20764111,0.34134626,-0.13749015,0.07855159,0.26306644,-0.044495158,-0.34725538,-0.24374712,-0.5062535,-1.5014943,-1.0953957,0.24369018,-0.85668707,-0.91275877,-0.72523856,-0.26158836,-0.50424,0.20195574,-0.0060272026,-0.086023696,0.3029575,0.5106694,0.030992854,0.06781881,1.1920092,-0.2672072,0.04593035,-0.85664177,1.1639317,0.78998727,1.0619375,0.70394987,0.6558642,0.057389066,0.95839757,-0.0773664,-1.0365521,-0.55987394,0.04084016,-0.6253315,-0.8676753,-0.88229537,0.01398962,-0.77315265,-0.011340839,0.38532847,-0.23334128,0.050328158,1.0021174,0.6240726,0.7642368,0.3586088,0.9278796,0.49903232,-0.67785954,-0.24168867,-0.004014564,1.0702261,1.0697709,0.6193545,0.8537549,0.64498603,0.18373618,-0.39318597,-0.28445977,0.27832788,0.59674144,-0.930318,-0.50599605,-0.10523937,0.5469157,-0.9459808,0.24787752,1.1406507,-0.04707546,0.77952665,0.63271725,-0.24655959,-0.109399535,-0.032584768,-0.37254632,0.028137635,-1.0435724,0.7103042,0.4247897,0.36966714,-0.27625275,0.03405289,-0.37294376,1.2420443,0.050095525,0.55656606,-1.5150865,-0.95313835,0.2597145,-1.1260495,-0.7970541,-0.6287847,0.5042086,0.6060712,0.9037924,0.7602553,0.9493788,0.037772074,0.28350142,-0.063786596,-0.04617629,0.18932028,0.5908348,-0.9265375,0.04681352,-0.009517877,0.10595639,0.86285776,0.5306491,0.55841815,0.6761358,0.22176345,1.5102972,-0.5850409,0.13389386,0.37373042,0.5926813,-0.27287176,-0.79824835,0.16539085,-0.71553206,0.62271667,-0.41620645,0.8609155,0.2660035,-0.34709293,0.32960662,0.21187456,-0.11652319,0.22529142,0.43849504,-0.7022145,-0.24956499,0.16120519,0.4390348,0.62230706,0.9702064,0.79674107,1.1520759,0.35188103,0.7553003,-0.038079213,-0.108045734,0.27085742,0.27195367,0.6855253,-0.32581577,-0.40426022,0.9551663,-0.85243636,0.40863445,-0.834259,0.206259,0.47740942,-0.30280143,0.8086337,-0.088955574,0.55232877,-0.53119713,-0.60519785,-0.29715374,0.14922741,0.5016305,0.56749004,0.8702471,0.26681906,0.48233566,0.60348964,0.22835921,0.10106673,-0.10214463,0.09550211,-0.32945806,-0.9068568,-0.30086502,-0.6872411,-0.79627365,0.18355006,0.2981316,0.12875102,-0.42200285,-0.4012544,0.48476255,0.1086535,0.30742365,-0.45144236,-0.3212474,0.28493327,0.6178733,0.21128836,0.6232989,0.4239151,-0.027851678,0.0030758083,-0.31418023,-0.5730068,-0.16270745,-1.2660297,-0.5813471,-1.0729569,0.17548485,0.79850894,0.8714907,0.5376918,-0.5881035,-0.013576143,0.48422042,-1.1572623,0.0021361455,-0.23371835,-0.22983056,-0.34830633,0.47223884,-0.25928086,0.78006816,-0.39473253,-0.096956015,0.5594141,-0.36654362,0.3016135,-0.08040982,0.18216024,-0.7015373,-0.2704017,-0.78591204,-0.7895088,-1.7240876,-0.31803805,-0.9149277,0.1194087,-0.76110953,0.6351958,0.603322,-0.71923095,-0.11364058,0.13627476,-1.0827584,-0.27026156,-0.43909508,-0.9822086,-0.62804943,-1.1836634,-0.90112585,-0.69411653,-0.57946616,-0.27664885,0.15355088,-0.808782,-0.8673781,-1.3598514,-0.37562856,-0.38001546,-0.16460079,-0.7247646,-0.4502363,-0.77502865,-0.52364963,0.061330754,0.17503034,-0.79238504,-0.18464243,-0.91969424,0.16792722,-0.9168042,-0.8657174,-0.36633456,-1.9546437,-1.9423648,-1.3841342,-0.6297394,-0.613709,-0.7340006,-0.28798324,-0.5060422,-0.96108186,-0.16681881,-0.462946,-0.7676688,-0.38880038,-0.11948206,-0.98678476,-0.53451324,-1.4112965,-0.6151778,0.04567675,-0.121655956,-0.65787107,-0.9859671,-0.23386675,-0.028660066,0.14230464,-1.3137672,-1.0034686,-0.8223335,-0.9790562,0.022012671,-0.16604045,-0.9861721,-0.8874531,-0.60060906,-0.8409246,-0.80891097,0.00224114,-0.3801888,-0.42720783,-0.72132605,-1.5072225,-0.7736236,-0.7348058,-0.69833374,-0.45465446,0.60219014,-0.32263213,-0.089797184,-0.58832717,0.8625978,0.8810668,-0.4112132,-0.22280371,0.3976466,-1.0719008,-0.12922196,-0.30466253,-0.37308186,0.29126632,-0.19518429,-0.029320752,-0.77699935,-0.20891953,-0.49439886,-0.5897719,-0.3661881,0.23808546,-0.9200126,-0.90334874,-0.3427005,0.3769007,-0.12616184,-0.89642316,0.59919095,-0.840906,0.29178488,-0.047020566,0.116793394,-0.48095685,-0.9285911,0.73355407,-1.0313126,-0.41514906,-0.26037627,-0.17210549,0.37806305,-1.0888034,0.13492556,-0.1340111,-0.21734779,-0.8112194,0.25894442,-0.7138991,-0.8215582,0.070211425,-0.26838315,0.36589178,-0.70388603,0.7703283,-0.1592949,0.63759625,0.6950823,-0.072735004,0.11078159,0.09927499,-0.33776635,0.5727229,-0.5682966,-0.9429727,-0.1369246,0.031042207,0.8010503,0.22188061,0.3265125,-0.059495993,-0.3717891,-0.4497265,-0.93179554,-0.31650862,-0.4061595,-0.83616644,-1.5143509,-0.60677236,-0.05867378,0.05137544,-0.5408177,-0.47183055,-0.82146376,0.37270585,-0.45641446,0.69376224,0.7412074,-0.9243517,0.06286454,-0.13377994,-0.27971962,0.12372021,0.8587177,0.69446754,-0.35975024,1.1898894,-0.63139087,-0.9235992,-0.750905,0.3913253,-0.08925794,-0.5459394,-0.11126526,-0.0016075409,0.43688983,-0.15108329,0.3793651,-0.8408583,0.059434693,-0.2042677,-0.109839804,0.73853594,0.7291475,0.83156115,-0.81094265,0.3639921,0.20801222,0.67257214,0.9211366,-0.88725847,0.4444296,-0.6388943,-0.1499443,0.5286947,0.42223486,0.182924,1.0381472,-0.20361513,0.4601904,-0.42258763,-0.043193653,0.19807296,-0.32580468,0.37551,0.29380116,0.23624021,-0.57007533,-0.13457611,0.35431668,0.05226544,0.27011946,0.9731505,0.2014693,-0.8513887,-0.9884922,0.004311681,-0.7482433,0.6232492,0.16785076,0.77120954,-0.25927335,0.9608816,0.107468285,0.3172184,0.90083945,0.3796879,-0.37571478,-0.093577005,-0.43049365,0.72961,-0.056562074,-0.30468315,0.56498766,0.5685203,0.74155194,-0.39364564,-0.06591754,0.78248876,-0.5610541,0.024368048,0.4571644,-0.25708258,0.671368,-0.2131353,0.4497223,-0.14871365,-0.58181393,-0.80704945,0.4718331,0.5485904,-0.6868954,0.26168013,0.08847511,0.61772907,0.16032016,0.5994494,0.7652617,-0.8423624,0.59382546,0.4809842,0.16284311,0.40409064,-0.63113654,-0.86969733,-0.39514095,-0.033543408,0.23970664,-0.804397,0.70139337,-0.058286548,0.63328135,-0.3252635,0.022566676,-0.4514603,-0.596039,-0.85403967,0.44808343,0.41854084,-0.16228873,-0.95381296,0.34343994,-0.5330282,0.7248877,-0.99669516,-0.7950883,-0.40155348,-0.7864133,0.62944806,0.012390147,-0.01103615,0.10946171,-0.84586555,0.8843923,-0.15087514,-0.77203506,-0.57899594,0.27108514,0.67523015,0.7234155,0.108321905,0.7759249,0.655979,-0.86190194,-0.09179062,0.52356875,-0.515484,0.7768085,-0.5872733,-0.14531283,0.1240697,-0.8213188,-0.5166781,0.80109626,-0.7089213,0.3238727,-0.6874862,-0.36952364,0.60092896,0.86950904,0.72071904,-0.2565412,0.7605714,-0.5874958,-0.03508788,-0.48103714,-0.03978443,-0.07417321,0.23457122,0.5138623,0.063624784,0.57048655,0.7234239,-0.23288053,0.7136155,0.8436008,0.17881118,-0.4599654,-1.0521524,0.10822684,-1.0619706,-0.9463111,-0.5561409,-0.7832541,-0.773628,0.3803445,-0.05802506,-0.5716608,-0.17029515,0.5203561,0.16121568,-0.34230322,0.095097296,0.124110855,-0.049982905,-0.0229823,-0.47236907,0.17291725,0.18802883,-0.9636118,0.16102634,-0.0117098605,0.11546411,-1.0662607,0.64029276,-0.022310723,0.6417022,-0.63603985,0.0743341,0.5302542,0.14403848,0.29469943,0.22445934,-0.35461682,0.014464278,-0.19799414,-0.5733752,0.2691894,0.75437254,0.70348984,-0.41633826,-0.42098427,0.8739483,0.33495414,0.34597898,-0.3053638,-0.6573487,0.24134624,-0.56102544,-0.088359065,-0.9652052,0.33372334,-0.10514367,-0.38407636,0.20784533,0.36416483,0.9198229,0.3673662,-0.18777093,0.60126805,0.043124855,0.4620941,0.36245903,0.29878578,1.0926365,0.41196966,-0.31577456,-0.8366882,0.5710002,-0.097653404,-0.098700024,-0.8478787,-0.74985087,-0.32324508,-0.64079547,0.82093483,-0.21310596,-0.76578546,-0.9334857,0.43513393,0.42258143,-0.36317402,-0.5822243,-0.5652691,-0.14311548,0.43824536,-0.24872266,-0.3324515,0.8857266,-0.59434515,0.39605638,-0.6524874,-0.18963507,-0.7249785,0.7966558,-0.08070226,-0.50552255,0.45673275,0.11561436,-0.35804683,-0.32166982,-0.78494537,-0.4718193,0.025459485,0.65904385,-0.325968,-0.63715184,-1.0214559,-0.7833972,0.5663687,1.052689,0.82041806,0.29479223,-0.086121686,0.16937457,0.18870841,-0.6150301,-0.36303252,0.2030761,-0.051895674,0.9497989,0.41200933,0.6446157,-0.26633412,1.3567786,1.2185184,-0.46238136,0.67523265,-0.43817338,0.556088,0.28157383,0.30146003,0.58382136,-0.422352,-0.27035716,0.0052897288,0.36302805,0.8468726,-0.32873636,-0.5002107,-0.35570478,-0.08692962,-0.32736167,-0.7600166,0.31916904,0.05899623,0.43582714,-4.907435E-4,0.5794635,0.39037722,-0.26488137,0.9429698,0.6081348,0.8094726,0.5117732,0.5778234,0.54886705,0.83762956,0.0024791346,0.1855981,0.5949137,-0.6478734,-0.8425357,-0.78123677,-0.20004104,-0.002126977,1.3551978,-0.5484419,0.35008296,0.35370848,-0.32511935,0.2132828,-0.7057951,0.36713782,0.051569145,-0.01256845,0.10230497,0.41982183,-0.45533395,0.8660154,1.4953587,0.7149895,0.5157212,-0.07593212,0.927181,0.68691766,-0.3384072,-0.039378442,-0.1097492,0.29291767,-1.0137812,-0.4439687,-0.92946786,0.31023037,0.61367846,1.0245746,-0.34656122,0.7104845,0.5400029,1.2412627,0.5298283,0.6404542,-0.4216299,0.37968504,0.21047898,0.4613719,0.4510071,1.2274494,0.61134905,0.21120389,0.70218027,0.6272668,-0.18760166,0.82605344,-0.66182667,-0.8327442,-1.1897851,-0.52496266,-1.1425395,-1.0503229,-0.18695085,-0.35417977,0.7520818,0.27967122,0.5879268,-0.41633776,1.0975916,0.34313568,-0.11838881,0.3705548,-0.16731098,-0.9072689,-0.22693473,-0.9334042,-0.021721357,0.5569456,1.2282459,0.63406354,-0.74635637,0.82941145,-0.033987258,0.5202395,0.62061507,0.35297707,-0.61050415,-1.3615977,-0.20840217,-0.75340337,-0.58719397,-0.2989918,-0.577056,0.4409821,-0.40382078,0.73124266,-0.02685396,0.96672213,-0.22457753,-0.6549018,-0.005303477,-0.8358978,-0.10906404,-1.848216,-0.2778924,-0.34941483,-0.27382916,-0.22598146,0.3077805,-0.022379475,0.12459482,-0.12435927,0.8817524,0.50332564,-0.633051,0.064065695,-1.1419382,-0.46689266,-0.2430286,-0.6832694,-0.70553607,0.7401365,1.4949188,-0.1824227,1.0322765,-0.66347784,-0.6737678,-0.9041252,-0.7788245,0.3372044,-1.3254051,-0.5911152,-0.5516526,-0.8844864,0.8222704,0.16076772,0.6376976,0.040654205,0.64156663,-0.86556554,0.6812862,-0.8727878,-0.46210542,-1.2017199,-0.050453298,-0.5518422,-0.11195677,0.29867974,0.15274978,-0.46887672,-0.11750877,-0.19034529,-0.43999904,-0.35235378,-0.5784263,0.31125233,-0.5178847,-0.47965682,0.0045866948,-0.7654109,-1.128208,-1.0683506,-0.9083496,-0.66553134,-0.91386396,-0.9168549,-0.48720813,-0.9470239,0.59870344,0.59640217,0.26979136,-0.3797688,-0.42138043,-0.3356079,-0.7032335,-0.68894935,-0.23425367,0.30198026,-0.06682379,0.6737982,-0.40941414,-0.34003133,-0.20681332,-0.59867686,-0.784603,-0.41597828,-0.69105124,-1.2755902,-0.31758198,-0.14719096,-0.57112366,-0.80726075,-0.060217317,0.37163132,-0.9577256,0.9369706,0.72156066,-0.24759182,-0.14294969,0.12146647,-0.4854032,-1.1388993,-1.2762803,-0.63509417,-0.8522639,-1.4342556,-0.7666249,0.5516769,-0.07391384,-1.0640993,-0.23843877,0.037614543,-0.7695646,0.12533532,0.19105202,0.46190718,-0.24263562,-0.6137078,-0.78146875,-0.9286349,0.52208436,-0.20422578,-0.20532377,-0.7625587,0.9465967,0.15363444,0.3180278,0.6213845,-0.86734796,-0.5857222,-0.93329346,-0.6347257,-1.7305368,-0.27186936,-0.99739814,-0.012849601,-1.3492185,0.082303576,-0.21725723,0.457881,0.48917234,-0.48051417,0.693233,-0.81851584,-0.75876063,0.3080245,-0.4307484,0.77809936,-0.20626014,0.73819816,-0.761195,-0.5158632,1.0849411,1.1106867,-0.41447085,0.87450665,-0.10371442,0.60388225,0.49786562,0.1696233,0.5593577,0.79354495,0.087791964,0.68603194,0.1059531,-0.80291337,0.071412735,-1.1710217,-0.101219386,-0.41989946,-0.14691646,1.0010002,-0.36256468,0.34540182,-0.40988436,0.6810989,0.25512177,0.5313048,-0.26120666,0.43255335,0.39373386,0.2426857,0.20947383,-0.23116769,0.51484936,0.51361245,1.4585099,-0.056272224,0.5503354,-0.35955083,0.4113238,-0.12116409,0.042268522,0.6059529,0.06164848,-0.5823128,0.47662035,0.7451645,-0.24935001,-0.43631077,0.60568213,-0.54705673,-0.6234931,0.3758074,0.8649484,0.29465485,-0.4416113,0.01846531,0.80705124,-0.084627755,-0.24768901,-0.15434961,0.61867946,0.35127562,-0.028550524,-0.0036272756,0.2739438,0.17698507,0.39617804,0.08463407,-0.37496868,0.5391786,-0.28167334,0.052105084,0.7499798,-0.593785,0.5140293,-0.6016396,-0.8817917,0.09841931,0.7711493,-0.10328066,-0.6253308,0.42482483,0.01371738,0.28149375,-0.32072362,0.96705335,0.5602592,0.33638927,-0.4744577,0.7429602,-0.2243234,-0.17135583,0.35134274,0.043665927,-7.0837775E-4,0.5197412,-0.6487923,0.30505866,-0.43331674,0.39554474,-0.3159764,-0.29537195,0.5905931,-0.9233147,0.26039505,0.41435537,0.6353816,-0.76764804,-0.98126686,0.9662152,-0.42143765,0.8325745,-0.8226076,-0.65109634,0.62504727,-0.41837847,-0.38606548,0.3937207,-0.48212916,0.6630606,-0.15672089,0.36109397,0.14584795,0.06791237,-0.8661295,0.097648434,0.8510974,-0.40392503,0.21227992,-1.1712947,0.47884935,0.29717797,0.65806806,0.08860882,-0.2560069,-0.20459211,0.34232455,-0.05732709,-0.63666874,-0.8071631,-0.4329917,0.840981,-0.5184951,0.10520747,-0.5041514,0.93224144,-0.6967447,0.83599496,-0.45586678,0.21409303,-0.025413021,0.045941748,0.6194572,0.33512452,-0.65476143,-0.058325246,-1.2360647,-0.12007841,-0.30518863,0.16791327,-0.3132141,0.44113705,-0.6122265,-0.38788363,0.08764279,-0.8686914,0.4849224,-0.32635912,0.07686858,-0.50335413,0.84413695,-0.08617399,0.41211617,0.19792773,0.25082523,-0.16026907,0.01372903,-0.50159496,0.87406933,-0.83721095,-0.46078277,0.70726657,-0.6733014,-0.9157455,0.28062394,-0.7650743,0.48719263,0.63795316,-0.79087234,-0.6296479,-0.06621252,0.26838607,0.52830946,-0.09219617,-0.06419951,-0.42588732,-0.37969694,0.31142744,-0.4477678,0.48168892,0.47790045,-0.49954405,-0.7209756,-0.41502815,-0.638118,-0.5430549,0.1015306,0.616775,-0.5754447,0.14507064,0.75377387,0.022496646,-0.038000476,-0.24087831,-0.52905035,0.05465482,0.711893,-0.12034104,0.53220165,0.25379196,0.10410464,-0.38690978,-0.09181702,-0.41662645,-0.21007542,-0.8188291,-0.87233806,0.21720856,0.28948888,-0.39856008,0.09931387,-0.835676,-0.35360727,-0.18722074,0.20796017,0.31975085,-1.001241,0.54995996,-0.377441,-0.3045133,-0.27336085,-0.5341012,-0.36717194,-0.46544993,0.37693483,0.20806496,-0.5346416,0.8604325,-0.5181248,-0.5989442,0.056851745,0.9776565,-0.5317975,0.24303296,0.5508199,-0.8253603,0.57497245,0.3976054,-0.99636674,-0.024730992,0.46253607,-0.27243164,0.2544102,-0.08524854,0.17436905,-0.6102094,-0.5214931,-0.7995973,-0.6480674,0.63391757,0.634725,0.62045485,0.45631954,0.65566874,0.6925975,-0.042204976,-0.54560935,-0.27579945,0.8960242,-0.36931336,0.4503262,0.7207215,0.6440482,0.17487514,0.8876728,-0.013798058,-0.4463014,0.867753,-0.38186294,-0.48979583,0.8189321,0.46189934,-0.63701123,-0.06093645,-0.71845114,0.4953978,-0.4225893,-0.5110831,0.74224055,0.22098982,-0.46326303,-0.89811426,0.84846187,-0.45156527,0.58238435,-0.50107205,-0.57382977,0.560416,0.8969214,0.6607841,0.556392,-0.91758305,-0.19535212,-0.98144484,-0.9768414,0.016734071,0.5349318,0.66629726,0.1302026,-0.67433393,-0.15871373,0.61120665,-0.3776172,-0.4093115,0.043328892,0.6683671,-0.67210364,-0.6389938,-0.43416438,-0.7314928,-0.24910212,-0.48579222,-0.8330881,-0.4355749,-0.8254521,-0.9204029,0.8589139,-0.49555108,-0.6039736,-0.4984232,0.6363873,-0.440557,-0.4143548,0.19262305,-0.17153013,-0.06383548,-0.7726518,0.38690686,0.4402407,-0.018635707,0.49677697,0.39964855,-0.038771495,0.75516105,0.8595532,0.3536922,-0.6119403,-0.38579002,0.40820503,0.037534237,0.008262873,0.30884945,0.10863042,-0.79972243,-0.16588783,-0.6071362,0.16652985,-0.07838156,0.07386512,-0.34312937,-1.0571467,-1.5275394,-0.4096306,-1.9340036,-0.62113696,-1.85875,-0.79511565,-0.6994155,-1.0800178,0.19156127,-0.18941353,0.57946795,-1.0113972,0.14788724,-0.3330478,0.670517,-0.33290562,0.9502398,-0.535694,-0.71619296,-0.65546906,0.57073414,0.44964087,0.7205683,-0.40499705,0.37712917,-0.0898593,-0.58312076,0.4831364,-0.5579973,0.2445066,-0.28546736,-0.58001757,0.1207996,-1.0922161,0.28220546,-0.6069153,1.1586818,-0.5312097,-0.55352515,0.43177456,-0.5542588,0.053171556,0.19225676,0.14326748,-0.05137208,0.55353737,-0.73712945,-0.7774967,-0.48048893,-0.08183771,-0.6379707,-0.28708577,-0.28220212,-0.12082763,-0.8315232,0.7298305,-0.47417045,0.9205749,-0.41371602,-0.38457772,0.07748373,-1.1300843,0.2961782,0.59590036,-0.49534205,-0.041524578,0.77727115,-0.77084863,0.4812325,0.2627362,0.15816557,0.97834045,0.10004321,-0.638157,0.5221523,-0.8388507,-0.22186373,-0.27969253,1.202819,0.56736094,-0.61063457,0.21362184,0.16587152,-1.0794364,0.925611,-0.120950595,0.14933726,-0.24980776,0.33662102,0.13775665,0.11977163,-0.09767857,0.051205184,0.20497793,0.2767939,-0.93789494,-0.13187566,0.8055793,0.5493457,0.028947337,-0.70334977,0.42638648,-0.8692782,-0.27268663,0.020593401,-0.028598439,0.40629894,-0.19975996,-0.22082171,0.080748044,-0.4691124,1.0470703,-0.3145844,0.71283126,-0.06567111,-0.21399598,-0.51805246,-0.038144324,-0.21538359,-0.20494619,0.0022973309,-0.045732178,-0.7605486,0.4507966,0.44184217,1.041022,-0.03743744,0.98719317,0.19909304,0.7045945,-0.2654453,-0.45578003,-0.9465442,-0.2993043,0.9863018,0.8824,0.28748128,0.39018694,0.07863269,-0.51433074,-0.4969248,-0.34502468,-0.12654276,-0.35581547,-0.8750731,0.21607722,0.5185726,-0.13944197,0.010747635,0.25131652,0.054655064,0.078904524,0.36317232,-0.1913268,0.72694594,0.15963006,-0.77481437,-0.8522205,0.71269435,0.17649305,-0.37072864,-0.94044554,-0.118462645,-0.136663,-0.6656228,0.4586521,0.9754844,-0.7058526,-0.13609362,0.5396728,-0.6184949,-0.2059045,-0.9330356,-0.53484696,0.15847506,-0.0069603682,0.6648046,-0.17649466,-0.1725779,0.71228874,0.19795015,0.78852725,0.7421376,1.5347345,0.42196605,-0.07908462,-0.37750682,0.47249264,0.5034734,-0.8199134,0.06374647,0.55672956,0.83638597,-0.2212263,0.7388446,-0.2999654,-0.014096794,-0.428775,0.89110845,-0.29556113,-1.1577618,-0.1808537,-0.14159173,0.5538476,-0.242059,0.13535492,0.4801718,0.5859448,0.7957056,0.28943366,0.64206535,0.8174688,-0.6002864,0.30621636,-0.32837963,0.9330292,-0.35669258,-0.3819704,0.19827437,0.17866743,-0.15102811,0.91143006,0.073279366,0.9154113,0.8693645,0.4543961,0.90600854,0.5145252,0.022603119,0.33923686,-0.021907087,-0.101195686,0.10378833,0.42422193,-1.0594004,-1.0062125,1.1802628,-0.73832476,0.8326341,0.24330315,-0.4865871,0.92138964,-0.6470143,-0.5852362,-0.88015115,0.45851323,-0.0048358925,-0.31779253,-0.1765368,0.6939703,0.7401523,0.97075367,0.772374,1.3099514,1.1384453,0.43313563,0.3034918,0.04992327,-0.10843543,-0.009836873,-0.14827894,0.8137132,0.15112041,0.53396547,-0.95117706,-0.07950436,-0.6327385,0.6206562,-0.16129234,0.03508462,-0.5105499,0.61729723,-0.24930327,-0.37106434,-0.29403132,1.1974522,0.5185885,-0.10380348,0.9414656,0.8195857,-0.012960451,1.3765258,-0.25404522,0.711902,-0.1306486,0.27350762,0.5743093,0.07799426,0.117926136,0.32130006,0.55093974,-0.25593618,0.36267528,-1.0116822,-0.8872697,0.012142664,-0.51833034,0.22090676,0.8446181,-0.58955574,-0.8420567,0.7620896,0.09833674,0.4918297,1.066614,0.67029184,-0.028304635,-0.0032715227,-0.0017961317,-0.54840726,1.2881947,0.17551747,0.37056205,0.63573164,0.42434084,0.3813915,-0.33740616,-0.2552244,-0.03618327,-0.21291144,0.24536407,-0.75818,-1.0666893,0.12606223,-0.40975326,-0.58055234,0.9230451,-0.8062948,-0.7563118,0.85917985,0.9750359,-0.59989035,-0.39273602,0.19164675,-0.7825839,-0.11388969,0.29167357,0.7144702,0.078248665,0.635368,0.050489962,0.6067149,-0.37713867,0.38188258,-0.5855579,0.40094092,-0.45280254,-0.1234689,-0.05450405,-0.40278795,-0.16329153,-0.31802863,-0.81084555,-0.83435136,0.7040918,0.48854944,0.8128103,0.7722719,0.30357438,0.28429073,-0.97339696,-0.69092745,0.618077,0.3580097,0.007718082,-0.48611915,1.1814095,0.5453873,-0.58393997,0.68449825,0.20464897,0.9479752,-0.11500113,-0.0037756967,0.65167505,-0.48102778,-0.42963257,0.0103419535,0.21980555,-0.71641916,0.2001594,-0.59077555,-0.92565286,0.7759421,0.23818398,-0.5414093,-0.25383937,-1.0942599,-0.56020343,-0.5724424,0.12216419,0.41374096,-0.44324067,0.5369721,0.49201736,0.36277208,0.5243489,0.9003623,-0.28946152,0.22950295,-0.46894905,-0.5899323,-0.8168775,-0.5138005,-0.22911936,0.1491926,-1.0910947,-0.19613461,-0.3761333,0.29537278,0.1991516,0.59639406,-0.925206,-0.9453879,0.27757218,-0.371745,-0.5256159,-0.4117095,0.1784022,-0.3877179,-0.43641013,-0.779169,0.5222131,1.2734332,-0.28839543,-0.5210637,0.5836558,-0.4768594,-0.70740545,-0.6337402,-0.8756186,0.6490864,0.34043688,-0.016138483,-0.5716223,-0.8757462,-0.8952039,-0.3394889,-0.6244792,-0.64909625,-0.84433776,-0.6740403,0.09824347,-0.44562528,-0.08943211,-1.4560891,-1.7040535,-1.5401629,-0.53273827,-1.407496,-1.8191221,-1.3726971,-0.94814366,0.69842917,-0.7442716,-0.31731454,0.4218118,0.14034487,0.18967399,-0.47192648,-0.7873586,0.92045915,0.19076231,-0.9942642,0.2790733,-0.41444066,-0.17893708,0.60702187,0.040492937,-0.072984226,0.2840403,0.2541934,0.066463895,-0.48347497,0.18070713,-0.8870457,-0.4465952,-0.9843456,-1.0358833,-0.7804303,-0.62418586,0.32666463,-0.3168386,0.5684127,0.09532214,-0.39884663,0.8124545,0.041427195,-0.21610655,0.09337239,-1.08638,-1.0557072,-0.8125671,-0.5659469,0.54859066,-0.6449879,0.4330983,-0.7290608,0.6453031,-0.81963396,-0.38351488,-0.8586121,0.8407251,-0.24168138,0.00632666,-0.051627338,-0.055609524,-0.6857873,-0.07953854,-0.31722093,0.40716362,0.2140027,0.062115233,0.10034664,-0.3472054,0.019687383,0.1413334,0.27439,0.10607018,0.23501296,0.81015784,0.6444678,-0.27696928,0.60062546,0.017645534,-0.52471673,-0.51084596,-0.5001407,0.053665537,-0.5085997,-0.13490148,-0.29720986,-0.012027805,-0.2574496,0.2072643,-0.4819657,0.17862794,-0.15926333,-0.6689008,0.046180382,0.17006461,0.51392686,0.12705162,0.5731231,-0.25649709,-0.47164258,-0.19944029,-0.5064432,0.35016003,0.8561349,0.9671868,-0.435566,-0.5475455,-0.83585656,0.3159036,0.7906735,-0.4217175,0.5087487,0.9090023,-0.13713083,0.33677322,-0.1718421,-0.1896248,-0.7382605,-0.39652175,0.12069126,-0.37833878,-0.23551413,-0.24884501,-0.14951766,0.09240386,-0.7857544,0.70458716,0.4444124,-0.8340771,-0.24156038,-0.87988424,-0.8010969,-0.24979031,-0.91208875,0.012611078,-0.50593203,0.60415554,-0.48239285,0.3223196,-0.5563567,0.6817293,-0.72660416,0.2854218,0.06058151,-0.28963053,0.01812058,0.023534004,0.2499093,-0.40155646,0.22932059,0.30536532,-0.5799606,0.36286798,0.8288728,-0.56228304,-0.2692931,-0.5712235,0.6069589,-0.33172265,0.8002857,-0.6140748,-0.81464005,0.6455856,0.06901262,-0.43338123,0.76670897,-0.4258559,0.13527939,0.8183684,-0.2658165,-7.45348E-4,0.33489373,0.27532023,0.65138566,-0.39400575,0.747398,-0.6102811,0.42327887,1.0564643,1.2825351,-0.42237654,0.2026914,-0.61712617,0.06833639,-0.18191075,0.51699626,0.59457034,-0.29457933,-0.7607772,-0.7126513,0.14311492,0.89891154,0.7148428,0.30986878,-0.56803554,-0.98988116,-0.10091511,0.51240563,-0.7110458,-0.33920795,0.46899813,-0.79184914,-0.9353736,-0.22825551,-0.52140343,-0.44273013,0.2761124,0.9425401,-0.53213966,0.6509858,0.46719563,-0.41277108,-0.68855786,0.88941467,0.3286072,-0.2249353,-0.5012795,-0.50563693,-0.85037196,-0.07459307,-0.4294495,-0.56264305,0.3540147,-0.875206,0.15751068,0.6949446,-0.0126781035,0.52222073,-0.39915243,-0.84461796,-0.5074294,-0.9186462,-0.7097413,-0.37362644,0.18564567,-0.9690676,-0.7159125,0.1427561,-0.84108,-0.009875291,-0.41986042,-0.34218007,-0.63182557,0.68451583,-0.6789876,-0.8780454,0.11464167,0.53981066,-0.45131177,-0.017092347,0.99501526,0.23354208,0.82903993,-0.043579698,-0.53628564,0.8772234,0.44063154,0.117124476,0.5220718,0.10448503,0.6946305,0.45016718,-0.083127916,-0.9536351,-0.043210745,0.084805965,0.058561087,-0.75935686,-0.09870547,-0.09993172,0.46754527,0.8895912,0.28663242,0.9692426,-0.026999474,-0.43785745,0.11541599,0.39683238,0.117135964,-0.5693138,-0.5745713,0.50274134,0.25911164,-0.5607972,-0.8447261,0.022859616,0.72442,0.41681814,-0.46453935,0.9991667,-0.98136115,0.095449075,0.2980347,0.4542689,-0.41422725,-0.8076117,0.58229065,-0.5791246,-0.08634889,-0.6422635,0.93012464,0.08048189,0.8486658,0.54845285,-0.032356735,-0.13377737,0.94378537,-0.3320632,0.49698752,0.15735032,-0.5592796,-0.20438474,-0.4560474,-0.5328266,-0.4519213,-0.23270822,0.0023879157,-0.5397533,-0.90602887,-0.63981444,0.63963366,-0.4157887,0.2763361,-0.067134395,-0.83107406,-0.043491296,0.42754328,0.98144066,0.6163751,0.29480302,0.23679486,-0.67134666,0.00337509,-0.7732631,0.40942132,-0.07446835,0.24335758,-0.3371884,-0.6913391,0.40545994,0.50888044,0.30659756,-0.10322813,0.33432746,0.20144358,-0.10215781,-0.39512718,-0.30696896,0.5119248,-0.5539829,-0.77743286,-0.17215516,0.71255434,-0.42636427,-0.76816463,0.89777327,0.23262691,0.59212595,-0.027687479,0.36996502,-0.08967417,0.3949895,0.8301732,0.5563061,0.4305007,-0.62182456,0.2119447,0.089908764,-0.57325685,-0.252566,0.06631931,-0.27256474,0.8443825,-0.20299481,-0.44593242,0.46994185,0.26711816,-0.79598546,-0.3959678,1.0841639,0.23525596,0.1395433,-0.4375377,0.43427974,-0.9496337,0.14359033,0.83260995,-0.63912034,-0.07985607,-0.32495403,0.30847734,0.6733278,0.38932374,0.3676437,-0.5795447,-0.5565064,0.8417612,-0.06600641,0.61627024,-0.7530097,0.10811598,0.34280685,0.5679967,-0.37690863,0.2874057,0.19157921,-1.1079037,0.43782002,-0.7366095,-0.5998917,0.30369574,0.0689906,-0.31646866,0.06297616,0.8309054,-0.59441626,-0.4221516,0.42869198,-0.06860509,0.09445376,-0.003184945,0.18210821,0.1384853,-1.278778,0.16360742,-0.45122707,0.049376905,0.42115682,-0.41635326,0.63169897,0.32637414,-0.3963171,0.23246066,-0.19986413,0.46154198,0.22465514,-0.21736264,0.2700423,0.6267117,0.6866897,0.32926205,-0.869868,0.36051738,-0.55391663,0.3648954,0.09102578,-0.3383072,-0.29463294,0.1988945,0.15611605,-0.06806673,0.3061972,-0.61563355,-0.07321374,-0.06425519,0.043956913,-0.26033217,0.07426106,-0.37673855,0.85663813,-0.48964062,-0.5342273,-0.39364508,-0.13850941,-0.47469226,0.08710865,0.4546989,-0.5078067,-0.5753231,0.22354844,-0.74179924,-0.45203584,-0.44833475,0.18017592,0.5903163,-0.55370367,-0.652768,0.18217416,0.35952148,-0.33813658,-0.1289152,-0.578888,-0.024256136,0.032855637,0.0958389,-0.114897825,0.24607337,-0.42803878,-0.18119241,0.30737588,-0.25805035,0.86414796,-0.69582844,-0.8117193,-0.5593687,-0.96583176,0.488222,-0.15952167,0.7145266,0.4919588,0.8790535,0.5236411,0.07111118,0.5540401,-0.45179275,-0.09789909,-0.080174655,-0.22748554,0.85300773,-0.35118213,-0.10120584,0.1397739,0.13112041,0.84848523,-0.11655974,1.0340378,-0.028932413,0.27470753,-0.65955937,-0.8052114,-0.98680055,-0.07439117,0.18246436,-0.5415254,0.23447973,0.9371115,0.3670632,-0.72077394,-0.24527417,-0.43060893,-0.696478,0.6913358,0.32519126,-0.03879031,0.5672735,-0.08098552,0.23544142,0.12080688,-0.84090376,0.84845984,0.8145855,0.1969538,1.1636426,-0.06337686,0.8719649,0.8498511,0.94839966,0.6448741,0.085124165,-0.7918998,-0.37415022,0.60689396,-0.92323506,-0.62507886,0.010491571,-0.6544106,-0.26326516,0.3840915,0.32930535,-0.34758177,0.12878788,-0.24307586,0.047630195,-0.0655069,0.20223965,-0.14266819,0.08565843,-0.39865857,-0.20486268,0.06611453,0.14161225,0.34088543,0.7404349,0.45687193,1.1032196,1.3201792,-0.0691029,-0.16710006,0.14858209,0.26997334,-0.2533754,0.120699205,0.700138,